{"learner":{"attributes":{"scikit_learn":"{\"_estimator_type\": \"regressor\"}"},"feature_names":["ATM_ID","Is_Weekend","Is_Payday","Is_Festival","Net_Flow_Lag_7","Net_Flow_Rolling_3"],"feature_types":["int","int","int","int","float","float"],"gradient_booster":{"model":{"gbtree_model_param":{"num_parallel_tree":"1","num_trees":"100"},"iteration_indptr":[0,1,2,3,4,5,6,7,8,9,10,11,12,13,14,15,16,17,18,19,20,21,22,23,24,25,26,27,28,29,30,31,32,33,34,35,36,37,38,39,40,41,42,43,44,45,46,47,48,49,50,51,52,53,54,55,56,57,58,59,60,61,62,63,64,65,66,67,68,69,70,71,72,73,74,75,76,77,78,79,80,81,82,83,84,85,86,87,88,89,90,91,92,93,94,95,96,97,98,99,100],"tree_info":[0,0,0,0,0,0,0,0,0,0,0,0,0,0,0,0,0,0,0,0,0,0,0,0,0,0,0,0,0,0,0,0,0,0,0,0,0,0,0,0,0,0,0,0,0,0,0,0,0,0,0,0,0,0,0,0,0,0,0,0,0,0,0,0,0,0,0,0,0,0,0,0,0,0,0,0,0,0,0,0,0,0,0,0,0,0,0,0,0,0,0,0,0,0,0,0,0,0,0,0],"trees":[{"base_weights":[1.131802E-2,-3.0813853E5,3.1256422E5,-4.4905628E5,-2.4375477E5,3.484795E5,1.7149448E5,-4.1726238E5,-8.880323E4,-2.113396E5,-3.2643753E5,3.528147E5,2.8055365E4,1.8365542E5,-1.3277713E4,-2.8083578E5,-4.898636E5,-2.2050256E5,-1.2348108E5,-3.346547E4,7.27144E3,3.762413E4,2.9396488E5,4.927858E4,-4.9641953E3,2.150958E5,8.733792E4,-2.2259717E4,-3.7131168E4,-4.4388027E4,-5.9309152E4,-2.1443975E4,-3.4759742E4,-1.36890625E4,1.2599305E4,2.6342201E4,3.3150734E4,-5.1312714E2,7.7766323E3,1.9866184E4,2.5692975E4,2.6766333E3,1.0539405E4],"categories":[],"categories_nodes":[],"categories_segments":[],"categories_sizes":[],"default_left":[0,0,0,0,0,0,0,0,0,0,0,0,0,0,0,0,0,0,0,0,0,0,0,0,0,0,0,0,0,0,0,0,0,0,0,0,0,0,0,0,0,0,0],"id":0,"left_children":[1,3,5,7,9,11,13,15,-1,17,19,21,23,25,-1,27,29,31,33,-1,-1,-1,35,37,-1,39,41,-1,-1,-1,-1,-1,-1,-1,-1,-1,-1,-1,-1,-1,-1,-1,-1],"loss_changes":[1.0806328E14,5.016677E12,2.76231E12,2.0858484E12,9.762809E11,6.0547714E11,4.4991146E11,1.506615E12,0E0,2.0059993E11,3.7856215E11,4.9186603E11,1.3989193E10,3.1735074E11,0E0,2.3349848E11,2.4464117E11,1.2195149E11,1.1426198E11,0E0,0E0,0E0,6.0591964E10,9.699122E9,0E0,6.020137E9,2.8895937E10,0E0,0E0,0E0,0E0,0E0,0E0,0E0,0E0,0E0,0E0,0E0,0E0,0E0,0E0,0E0,0E0],"parents":[2147483647,0,0,1,1,2,2,3,3,4,4,5,5,6,6,7,7,9,9,10,10,11,11,12,12,13,13,15,15,16,16,17,17,18,18,22,22,23,23,25,25,26,26],"right_children":[2,4,6,8,10,12,14,16,-1,18,20,22,24,26,-1,28,30,32,34,-1,-1,-1,36,38,-1,40,42,-1,-1,-1,-1,-1,-1,-1,-1,-1,-1,-1,-1,-1,-1,-1,-1],"split_conditions":[-2.7492066E5,-6.22015E5,1E0,1E0,1E0,1E0,1E0,1E0,-8.880323E4,-4.75338E5,-4.7168E4,1E0,1.52038E5,1E0,-1.3277713E4,1E0,1E0,1E0,1E0,-3.346547E4,7.27144E3,3.762413E4,4.1824668E4,1E0,-4.9641953E3,-2.1111334E4,-1.4770667E5,-2.2259717E4,-3.7131168E4,-4.4388027E4,-5.9309152E4,-2.1443975E4,-3.4759742E4,-1.36890625E4,1.2599305E4,2.6342201E4,3.3150734E4,-5.1312714E2,7.7766323E3,1.9866184E4,2.5692975E4,2.6766333E3,1.0539405E4],"split_indices":[5,5,2,3,1,3,3,2,0,5,4,1,4,1,0,1,1,2,2,0,0,0,5,0,0,5,5,0,0,0,0,0,0,0,0,0,0,0,0,0,0,0,0],"split_type":[0,0,0,0,0,0,0,0,0,0,0,0,0,0,0,0,0,0,0,0,0,0,0,0,0,0,0,0,0,0,0,0,0,0,0,0,0,0,0,0,0,0,0],"sum_hessian":[1.12E3,5.64E2,5.56E2,1.75E2,3.89E2,4.42E2,1.14E2,1.65E2,1E1,2.82E2,1.07E2,4.36E2,6E0,1.1E2,4E0,5.9E1,1.06E2,2.54E2,2.8E1,1.05E2,2E0,3.08E2,1.28E2,5E0,1E0,8.2E1,2.8E1,3.8E1,2.1E1,7.7E1,2.9E1,2.45E2,9E0,2.7E1,1E0,7.5E1,5.3E1,2E0,3E0,6.3E1,1.9E1,7E0,2.1E1],"tree_param":{"num_deleted":"0","num_feature":"6","num_nodes":"43","size_leaf_vector":"1"}},{"base_weights":[-1.6989647E2,-2.7791828E5,2.8156797E5,-4.0558188E5,-2.1959336E5,3.1385597E5,1.5474067E5,-3.765186E5,-8.073021E4,-1.9040808E5,-2.9403634E5,3.1775547E5,2.5578303E4,1.6581938E5,-1.2215495E4,-2.5374205E5,-4.4184638E5,-1.9867272E5,-1.11170555E5,-3.0150494E4,6.7866772E3,3.387389E5,2.650296E5,4.556131E4,-4.715986E3,1.9413512E5,7.905985E4,-2.009082E4,-3.3586832E4,-4.0006133E4,-5.3575938E4,-1.9308295E4,-3.1631363E4,-1.2369046E4,1.1969339E4,3.235865E4,3.6761184E4,2.2323982E4,2.8625982E4,-4.7891876E2,7.1933853E3,1.7910605E4,2.3252143E4,5.297975E3,1.2331408E4],"categories":[],"categories_nodes":[],"categories_segments":[],"categories_sizes":[],"default_left":[0,0,0,0,0,0,0,0,0,0,0,0,0,0,0,0,0,0,0,0,0,0,0,0,0,0,0,0,0,0,0,0,0,0,0,0,0,0,0,0,0,0,0,0,0],"id":1,"left_children":[1,3,5,7,9,11,13,15,-1,17,19,21,23,25,-1,27,29,31,33,-1,-1,35,37,39,-1,41,43,-1,-1,-1,-1,-1,-1,-1,-1,-1,-1,-1,-1,-1,-1,-1,-1,-1,-1],"loss_changes":[8.779901E13,4.117909E12,2.2323428E12,1.7508912E12,7.913435E11,4.8986954E11,3.730351E11,1.219324E12,0E0,1.6324021E11,3.1237708E11,3.9371093E11,1.2323355E10,2.57341E11,0E0,1.9286432E11,2.0554816E11,1.0660872E11,9.862637E10,0E0,0E0,1.6227762E10,5.054451E10,8.311727E9,0E0,6.2377165E9,2.6937328E10,0E0,0E0,0E0,0E0,0E0,0E0,0E0,0E0,0E0,0E0,0E0,0E0,0E0,0E0,0E0,0E0,0E0,0E0],"parents":[2147483647,0,0,1,1,2,2,3,3,4,4,5,5,6,6,7,7,9,9,10,10,11,11,12,12,13,13,15,15,16,16,17,17,18,18,21,21,22,22,23,23,25,25,26,26],"right_children":[2,4,6,8,10,12,14,16,-1,18,20,22,24,26,-1,28,30,32,34,-1,-1,36,38,40,-1,42,44,-1,-1,-1,-1,-1,-1,-1,-1,-1,-1,-1,-1,-1,-1,-1,-1,-1,-1],"split_conditions":[-2.7492066E5,-6.22015E5,1E0,1E0,1E0,1E0,1E0,1E0,-8.073021E4,-4.75338E5,-4.7168E4,1E0,1.52038E5,1E0,-1.2215495E4,1E0,1E0,1E0,1E0,-3.0150494E4,6.7866772E3,8.3162664E4,1.4789667E4,1E0,-4.715986E3,-2.1111334E4,4.6373E4,-2.009082E4,-3.3586832E4,-4.0006133E4,-5.3575938E4,-1.9308295E4,-3.1631363E4,-1.2369046E4,1.1969339E4,3.235865E4,3.6761184E4,2.2323982E4,2.8625982E4,-4.7891876E2,7.1933853E3,1.7910605E4,2.3252143E4,5.297975E3,1.2331408E4],"split_indices":[5,5,2,3,1,3,3,2,0,5,4,1,4,1,0,1,1,2,2,0,0,5,5,0,0,5,4,0,0,0,0,0,0,0,0,0,0,0,0,0,0,0,0,0,0],"split_type":[0,0,0,0,0,0,0,0,0,0,0,0,0,0,0,0,0,0,0,0,0,0,0,0,0,0,0,0,0,0,0,0,0,0,0,0,0,0,0,0,0,0,0,0,0],"sum_hessian":[1.12E3,5.64E2,5.56E2,1.75E2,3.89E2,4.42E2,1.14E2,1.65E2,1E1,2.82E2,1.07E2,4.36E2,6E0,1.1E2,4E0,5.9E1,1.06E2,2.54E2,2.8E1,1.05E2,2E0,3.08E2,1.28E2,5E0,1E0,8.2E1,2.8E1,3.8E1,2.1E1,7.7E1,2.9E1,2.45E2,9E0,2.7E1,1E0,2.1E2,9.8E1,4.7E1,8.1E1,2E0,3E0,6.3E1,1.9E1,1.9E1,9E0],"tree_param":{"num_deleted":"0","num_feature":"6","num_nodes":"45","size_leaf_vector":"1"}},{"base_weights":[-2.7249097E2,-2.5066219E5,2.5371395E5,-3.663191E5,-1.9782558E5,2.827459E5,1.3967161E5,-3.3975384E5,-7.33911E4,-1.715487E5,-2.6484903E5,2.862547E5,2.3305973E4,1.497671E5,-1.1238255E4,-2.2926247E5,-3.9853634E5,-1.7296347E5,1.1370872E4,-2.7163889E4,6.3342314E3,3.0508872E5,2.3892158E5,4.2124254E4,-4.480186E3,1.7521755E5,7.176178E4,-1.8133256E4,-3.0380812E4,-3.605681E4,-4.839693E4,-1.9591936E4,-1.5085533E4,2.8764035E4,3.257292E4,2.1307441E4,2.7087463E4,-4.4699167E2,6.6538823E3,1.614753E4,2.104319E4,1.8030204E3,8.803864E3],"categories":[],"categories_nodes":[],"categories_segments":[],"categories_sizes":[],"default_left":[0,0,0,0,0,0,0,0,0,0,0,0,0,0,0,0,0,0,0,0,0,0,0,0,0,0,0,0,0,0,0,0,0,0,0,0,0,0,0,0,0,0,0],"id":2,"left_children":[1,3,5,7,9,11,13,15,-1,17,19,21,23,25,-1,27,29,31,-1,-1,-1,33,35,37,-1,39,41,-1,-1,-1,-1,-1,-1,-1,-1,-1,-1,-1,-1,-1,-1,-1,-1],"loss_changes":[7.1354255E13,3.380198E12,1.8046664E12,1.4693192E12,6.414223E11,3.965966E11,3.0946125E11,9.86796E11,0E0,1.3387851E11,2.5787053E11,3.1668253E11,1.0858952E10,2.0779133E11,0E0,1.5928787E11,1.7257569E11,1.135634E11,0E0,0E0,0E0,1.7593008E10,4.882432E10,7.1228815E9,0E0,6.186074E9,2.3775494E10,0E0,0E0,0E0,0E0,0E0,0E0,0E0,0E0,0E0,0E0,0E0,0E0,0E0,0E0,0E0,0E0],"parents":[2147483647,0,0,1,1,2,2,3,3,4,4,5,5,6,6,7,7,9,9,10,10,11,11,12,12,13,13,15,15,16,16,17,17,21,21,22,22,23,23,25,25,26,26],"right_children":[2,4,6,8,10,12,14,16,-1,18,20,22,24,26,-1,28,30,32,-1,-1,-1,34,36,38,-1,40,42,-1,-1,-1,-1,-1,-1,-1,-1,-1,-1,-1,-1,-1,-1,-1,-1],"split_conditions":[-2.7492066E5,-6.22015E5,1E0,1E0,1E0,1E0,1E0,1E0,-7.33911E4,-3.27175E5,-4.7168E4,1E0,1.52038E5,1E0,-1.1238255E4,1E0,1E0,-5.303427E5,1.1370872E4,-2.7163889E4,6.3342314E3,6.8267664E4,4.1824668E4,1E0,-4.480186E3,-2.1111334E4,-1.4770667E5,-1.8133256E4,-3.0380812E4,-3.605681E4,-4.839693E4,-1.9591936E4,-1.5085533E4,2.8764035E4,3.257292E4,2.1307441E4,2.7087463E4,-4.4699167E2,6.6538823E3,1.614753E4,2.104319E4,1.8030204E3,8.803864E3],"split_indices":[5,5,2,3,1,3,3,2,0,4,4,1,4,1,0,1,1,5,0,0,0,5,5,0,0,5,5,0,0,0,0,0,0,0,0,0,0,0,0,0,0,0,0],"split_type":[0,0,0,0,0,0,0,0,0,0,0,0,0,0,0,0,0,0,0,0,0,0,0,0,0,0,0,0,0,0,0,0,0,0,0,0,0,0,0,0,0,0,0],"sum_hessian":[1.12E3,5.64E2,5.56E2,1.75E2,3.89E2,4.42E2,1.14E2,1.65E2,1E1,2.82E2,1.07E2,4.36E2,6E0,1.1E2,4E0,5.9E1,1.06E2,2.81E2,1E0,1.05E2,2E0,3.08E2,1.28E2,5E0,1E0,8.2E1,2.8E1,3.8E1,2.1E1,7.7E1,2.9E1,1.34E2,1.47E2,1.75E2,1.33E2,7.5E1,5.3E1,2E0,3E0,6.3E1,1.9E1,7E0,2.1E1],"tree_param":{"num_deleted":"0","num_feature":"6","num_nodes":"43","size_leaf_vector":"1"}},{"base_weights":[-3.3665723E2,-2.2603933E5,2.286083E5,-3.1914647E5,-1.7172395E5,2.5472292E5,1.2602235E5,-2.9645966E5,-6.3489895E4,-1.4906547E5,-2.3312153E5,2.5788031E5,2.1222053E4,1.35221E5,-1.0339195E4,-2.1099005E5,-3.5923856E5,-1.5044848E5,1.0802328E4,-2.4004197E4,5.91195E3,2.7477834E5,2.154046E5,3.8946316E4,-4.256177E3,1.5814388E5,6.4951348E4,-1.7177459E4,-2.675788E4,-3.240828E4,-4.3590188E4,-1.4628388E4,-2.6543014E4,2.621217E4,2.9897807E4,1.9204732E4,2.442888E4,-4.1719165E2,6.1548413E3,1.4906237E4,2.0953264E4,4.133321E3,1.0569249E4],"categories":[],"categories_nodes":[],"categories_segments":[],"categories_sizes":[],"default_left":[0,0,0,0,0,0,0,0,0,0,0,0,0,0,0,0,0,0,0,0,0,0,0,0,0,0,0,0,0,0,0,0,0,0,0,0,0,0,0,0,0,0,0],"id":3,"left_children":[1,3,5,7,9,11,13,15,-1,17,19,21,23,25,-1,27,29,31,-1,-1,-1,33,35,37,-1,39,41,-1,-1,-1,-1,-1,-1,-1,-1,-1,-1,-1,-1,-1,-1,-1,-1],"loss_changes":[5.7977654E13,2.802483E12,1.4601001E12,1.2946055E12,4.646817E11,3.211327E11,2.5666519E11,9.7051476E11,0E0,1.1047377E11,2.0632253E11,2.5446842E11,9.571274E9,1.6852517E11,0E0,1.426648E11,1.5789353E11,8.75886E10,0E0,0E0,0E0,1.62739E10,4.0115896E10,6.10415E9,0E0,7.501644E9,2.353605E10,0E0,0E0,0E0,0E0,0E0,0E0,0E0,0E0,0E0,0E0,0E0,0E0,0E0,0E0,0E0,0E0],"parents":[2147483647,0,0,1,1,2,2,3,3,4,4,5,5,6,6,7,7,9,9,10,10,11,11,12,12,13,13,15,15,16,16,17,17,21,21,22,22,23,23,25,25,26,26],"right_children":[2,4,6,8,10,12,14,16,-1,18,20,22,24,26,-1,28,30,32,-1,-1,-1,34,36,38,-1,40,42,-1,-1,-1,-1,-1,-1,-1,-1,-1,-1,-1,-1,-1,-1,-1,-1],"split_conditions":[-2.7492066E5,-6.0598E5,1E0,1E0,1E0,1E0,1E0,1E0,-6.3489895E4,-3.27175E5,-4.7168E4,1E0,1.52038E5,1E0,-1.0339195E4,1E0,1E0,1E0,1.0802328E4,-2.4004197E4,5.91195E3,8.3162664E4,4.1824668E4,1E0,-4.256177E3,2.3480334E4,4.6373E4,-1.7177459E4,-2.675788E4,-3.240828E4,-4.3590188E4,-1.4628388E4,-2.6543014E4,2.621217E4,2.9897807E4,1.9204732E4,2.442888E4,-4.1719165E2,6.1548413E3,1.4906237E4,2.0953264E4,4.133321E3,1.0569249E4],"split_indices":[5,5,2,3,1,3,3,2,0,4,4,1,4,1,0,1,1,2,0,0,0,5,5,0,0,5,4,0,0,0,0,0,0,0,0,0,0,0,0,0,0,0,0],"split_type":[0,0,0,0,0,0,0,0,0,0,0,0,0,0,0,0,0,0,0,0,0,0,0,0,0,0,0,0,0,0,0,0,0,0,0,0,0,0,0,0,0,0,0],"sum_hessian":[1.12E3,5.64E2,5.56E2,2.06E2,3.58E2,4.42E2,1.14E2,1.94E2,1.2E1,2.64E2,9.4E1,4.36E2,6E0,1.1E2,4E0,8.4E1,1.1E2,2.63E2,1E0,9.2E1,2E0,3.08E2,1.28E2,5E0,1E0,8.2E1,2.8E1,5.2E1,3.2E1,7.9E1,3.1E1,2.56E2,7E0,2.1E2,9.8E1,7.5E1,5.3E1,2E0,3E0,7.3E1,9E0,1.9E1,9E0],"tree_param":{"num_deleted":"0","num_feature":"6","num_nodes":"43","size_leaf_vector":"1"}},{"base_weights":[-3.8367026E2,-2.0384581E5,2.0600142E5,-2.8811794E5,-1.5468655E5,2.2947912E5,1.1376988E5,-2.6742875E5,-5.762929E4,-1.3427355E5,-2.0999983E5,2.3232053E5,1.9311486E4,1.22154414E5,-9.512061E3,-1.9040792E5,-3.2399938E5,-1.4048878E5,-6.600841E4,-2.162959E4,5.517821E3,2.474821E5,1.9420238E5,3.6007957E4,-4.0433672E3,1.4276153E5,5.8963203E4,-1.5492122E4,-2.4163178E4,-2.9207959E4,-3.9367387E4,-1.3642828E4,-2.4220498E4,-8.147664E3,6.942811E3,8.277574E3,2.4828547E4,1.5011305E4,2.0604648E4,-3.8937918E2,5.693228E3,1.0878494E4,1.5182101E4,3.7406562E3,9.618017E3],"categories":[],"categories_nodes":[],"categories_segments":[],"categories_sizes":[],"default_left":[0,0,0,0,0,0,0,0,0,0,0,0,0,0,0,0,0,0,0,0,0,0,0,0,0,0,0,0,0,0,0,0,0,0,0,0,0,0,0,0,0,0,0,0,0],"id":4,"left_children":[1,3,5,7,9,11,13,15,-1,17,19,21,23,25,-1,27,29,31,33,-1,-1,35,37,39,-1,41,43,-1,-1,-1,-1,-1,-1,-1,-1,-1,-1,-1,-1,-1,-1,-1,-1,-1,-1],"loss_changes":[4.711452E13,2.29609E12,1.1800129E12,1.0800396E12,3.771534E11,2.6006153E11,2.1303591E11,7.8794614E11,0E0,1.0316205E11,1.705446E11,2.0449539E11,8.4386673E9,1.3612522E11,0E0,1.1707613E11,1.318794E11,6.6907013E10,5.5935885E10,0E0,0E0,2.0333986E10,3.643382E10,5.231185E9,0E0,9.032303E9,1.966814E10,0E0,0E0,0E0,0E0,0E0,0E0,0E0,0E0,0E0,0E0,0E0,0E0,0E0,0E0,0E0,0E0,0E0,0E0],"parents":[2147483647,0,0,1,1,2,2,3,3,4,4,5,5,6,6,7,7,9,9,10,10,11,11,12,12,13,13,15,15,16,16,17,17,18,18,21,21,22,22,23,23,25,25,26,26],"right_children":[2,4,6,8,10,12,14,16,-1,18,20,22,24,26,-1,28,30,32,34,-1,-1,36,38,40,-1,42,44,-1,-1,-1,-1,-1,-1,-1,-1,-1,-1,-1,-1,-1,-1,-1,-1,-1,-1],"split_conditions":[-2.7492066E5,-6.0598E5,1E0,1E0,1E0,1E0,1E0,1E0,-5.762929E4,-4.7299034E5,-4.7168E4,1E0,1.52038E5,1E0,-9.512061E3,1E0,1E0,1E0,-3.94464E5,-2.162959E4,5.517821E3,-1.4770667E5,-4.4086665E3,1E0,-4.0433672E3,-1.4461967E5,4.6373E4,-1.5492122E4,-2.4163178E4,-2.9207959E4,-3.9367387E4,-1.3642828E4,-2.4220498E4,-8.147664E3,6.942811E3,8.277574E3,2.4828547E4,1.5011305E4,2.0604648E4,-3.8937918E2,5.693228E3,1.0878494E4,1.5182101E4,3.7406562E3,9.618017E3],"split_indices":[5,5,2,3,1,3,3,2,0,5,4,1,4,1,0,1,1,2,4,0,0,5,5,0,0,5,4,0,0,0,0,0,0,0,0,0,0,0,0,0,0,0,0,0,0],"split_type":[0,0,0,0,0,0,0,0,0,0,0,0,0,0,0,0,0,0,0,0,0,0,0,0,0,0,0,0,0,0,0,0,0,0,0,0,0,0,0,0,0,0,0,0,0],"sum_hessian":[1.12E3,5.64E2,5.56E2,2.06E2,3.58E2,4.42E2,1.14E2,1.94E2,1.2E1,2.64E2,9.4E1,4.36E2,6E0,1.1E2,4E0,8.4E1,1.1E2,2.41E2,2.3E1,9.2E1,2E0,3.08E2,1.28E2,5E0,1E0,8.2E1,2.8E1,5.2E1,3.2E1,7.9E1,3.1E1,2.34E2,7E0,2.1E1,2E0,2E0,3.06E2,3E1,9.8E1,2E0,3E0,2E1,6.2E1,1.9E1,9E0],"tree_param":{"num_deleted":"0","num_feature":"6","num_nodes":"45","size_leaf_vector":"1"}},{"base_weights":[-4.533769E2,-1.8385245E5,1.8558061E5,-2.7022216E5,-1.4440394E5,2.0668919E5,1.0265296E5,-2.4958544E5,-5.5708344E4,-1.25282234E5,-1.9317278E5,2.0924573E5,1.756041E4,1.102941E5,-8.751096E3,-1.6863169E5,-2.926475E5,-1.3497745E5,-8.447351E4,-1.982751E4,5.149967E3,2.2284102E5,1.7505822E5,3.329114E4,-3.8411985E3,1.2879936E5,5.3527527E4,-1.3183234E4,-2.262018E4,-2.6414725E4,-3.569933E4,-1.3035015E4,-2.2235496E4,-8.952307E3,9.915071E3,2.084771E4,2.4004406E4,1.5496964E4,2.0008924E4,-3.6342084E2,5.266237E3,1.2054378E4,1.770108E4,6.484504E2,6.820101E3],"categories":[],"categories_nodes":[],"categories_segments":[],"categories_sizes":[],"default_left":[0,0,0,0,0,0,0,0,0,0,0,0,0,0,0,0,0,0,0,0,0,0,0,0,0,0,0,0,0,0,0,0,0,0,0,0,0,0,0,0,0,0,0,0,0],"id":5,"left_children":[1,3,5,7,9,11,13,15,-1,17,19,21,23,25,-1,27,29,31,33,-1,-1,35,37,39,-1,41,43,-1,-1,-1,-1,-1,-1,-1,-1,-1,-1,-1,-1,-1,-1,-1,-1,-1,-1],"loss_changes":[3.8280913E13,1.8860254E12,9.538015E11,9.028575E11,3.3949064E11,2.105226E11,1.7675492E11,5.293327E11,0E0,1.0056683E11,1.4503772E11,1.6410424E11,7.4421857E9,1.097091E11,0E0,9.729173E10,1.0192578E11,6.279712E10,6.17278E10,0E0,0E0,2.630982E10,3.385852E10,4.4831217E9,0E0,1.1697521E10,1.957602E10,0E0,0E0,0E0,0E0,0E0,0E0,0E0,0E0,0E0,0E0,0E0,0E0,0E0,0E0,0E0,0E0,0E0,0E0],"parents":[2147483647,0,0,1,1,2,2,3,3,4,4,5,5,6,6,7,7,9,9,10,10,11,11,12,12,13,13,15,15,16,16,17,17,18,18,21,21,22,22,23,23,25,25,26,26],"right_children":[2,4,6,8,10,12,14,16,-1,18,20,22,24,26,-1,28,30,32,34,-1,-1,36,38,40,-1,42,44,-1,-1,-1,-1,-1,-1,-1,-1,-1,-1,-1,-1,-1,-1,-1,-1,-1,-1],"split_conditions":[-2.7492066E5,-6.22015E5,1E0,1E0,1E0,1E0,1E0,1E0,-5.5708344E4,-4.9448234E5,-4.7168E4,1E0,1.52038E5,1E0,-8.751096E3,1E0,1E0,1E0,1E0,-1.982751E4,5.149967E3,6.8267664E4,4.1824668E4,1E0,-3.8411985E3,2.3480334E4,-1.4770667E5,-1.3183234E4,-2.262018E4,-2.6414725E4,-3.569933E4,-1.3035015E4,-2.2235496E4,-8.952307E3,9.915071E3,2.084771E4,2.4004406E4,1.5496964E4,2.0008924E4,-3.6342084E2,5.266237E3,1.2054378E4,1.770108E4,6.484504E2,6.820101E3],"split_indices":[5,5,2,3,1,3,3,2,0,5,4,1,4,1,0,1,1,2,2,0,0,5,5,0,0,5,5,0,0,0,0,0,0,0,0,0,0,0,0,0,0,0,0,0,0],"split_type":[0,0,0,0,0,0,0,0,0,0,0,0,0,0,0,0,0,0,0,0,0,0,0,0,0,0,0,0,0,0,0,0,0,0,0,0,0,0,0,0,0,0,0,0,0],"sum_hessian":[1.12E3,5.64E2,5.56E2,1.75E2,3.89E2,4.42E2,1.14E2,1.65E2,1E1,2.82E2,1.07E2,4.36E2,6E0,1.1E2,4E0,5.9E1,1.06E2,2.26E2,5.6E1,1.05E2,2E0,3.08E2,1.28E2,5E0,1E0,8.2E1,2.8E1,3.8E1,2.1E1,7.7E1,2.9E1,2.17E2,9E0,5.5E1,1E0,1.75E2,1.33E2,7.5E1,5.3E1,2E0,3E0,7.3E1,9E0,7E0,2.1E1],"tree_param":{"num_deleted":"0","num_feature":"6","num_nodes":"45","size_leaf_vector":"1"}},{"base_weights":[-4.9075592E2,-1.6582581E5,1.6721984E5,-2.3540656E5,-1.2524354E5,1.8620405E5,9.263526E4,-2.1801055E5,-4.782387E4,-1.0869873E5,-1.700765E5,1.8850505E5,1.5956024E4,9.960005E4,-8.051008E3,-1.5563861E5,-2.6380878E5,-1.1281555E5,-3.7579766E4,-1.7528459E4,4.8066357E3,2.0070206E5,1.5782764E5,3.0779158E4,-3.6491392E3,1.1627793E5,4.8432316E4,-1.2682607E4,-1.9719697E4,-2.3725668E4,-3.21945E4,-1.09429795E4,-2.01556E4,-5.2644175E3,9.419317E3,1.9020725E4,2.2104256E4,1.2985909E4,1.7227475E4,-3.3919376E2,4.871269E3,1.08652295E4,1.6107983E4,2.8916763E3,8.26202E3],"categories":[],"categories_nodes":[],"categories_segments":[],"categories_sizes":[],"default_left":[0,0,0,0,0,0,0,0,0,0,0,0,0,0,0,0,0,0,0,0,0,0,0,0,0,0,0,0,0,0,0,0,0,0,0,0,0,0,0,0,0,0,0,0,0],"id":6,"left_children":[1,3,5,7,9,11,13,15,-1,17,19,21,23,25,-1,27,29,31,33,-1,-1,35,37,39,-1,41,43,-1,-1,-1,-1,-1,-1,-1,-1,-1,-1,-1,-1,-1,-1,-1,-1,-1,-1],"loss_changes":[3.111131E13,1.5659329E12,7.714237E11,7.701717E11,2.4780263E11,1.7053306E11,1.4669965E11,5.1596336E11,0E0,7.334789E10,1.16355236E11,1.3183746E11,6.56522E9,8.909226E10,0E0,7.6769526E10,9.496009E10,5.305742E10,3.672002E10,0E0,0E0,2.3918019E10,2.9753082E10,3.8420813E9,0E0,1.0854728E10,1.6959558E10,0E0,0E0,0E0,0E0,0E0,0E0,0E0,0E0,0E0,0E0,0E0,0E0,0E0,0E0,0E0,0E0,0E0,0E0],"parents":[2147483647,0,0,1,1,2,2,3,3,4,4,5,5,6,6,7,7,9,9,10,10,11,11,12,12,13,13,15,15,16,16,17,17,18,18,21,21,22,22,23,23,25,25,26,26],"right_children":[2,4,6,8,10,12,14,16,-1,18,20,22,24,26,-1,28,30,32,34,-1,-1,36,38,40,-1,42,44,-1,-1,-1,-1,-1,-1,-1,-1,-1,-1,-1,-1,-1,-1,-1,-1,-1,-1],"split_conditions":[-2.7492066E5,-6.0598E5,1E0,1E0,1E0,1E0,1E0,1E0,-4.782387E4,-4.6086766E5,-4.7168E4,1E0,1.52038E5,1E0,-8.051008E3,1E0,1E0,1E0,1E0,-1.7528459E4,4.8066357E3,8.3162664E4,1.4789667E4,1E0,-3.6491392E3,2.3480334E4,4.6373E4,-1.2682607E4,-1.9719697E4,-2.3725668E4,-3.21945E4,-1.09429795E4,-2.01556E4,-5.2644175E3,9.419317E3,1.9020725E4,2.2104256E4,1.2985909E4,1.7227475E4,-3.3919376E2,4.871269E3,1.08652295E4,1.6107983E4,2.8916763E3,8.26202E3],"split_indices":[5,5,2,3,1,3,3,2,0,5,4,1,4,1,0,1,1,2,2,0,0,5,5,0,0,5,4,0,0,0,0,0,0,0,0,0,0,0,0,0,0,0,0,0,0],"split_type":[0,0,0,0,0,0,0,0,0,0,0,0,0,0,0,0,0,0,0,0,0,0,0,0,0,0,0,0,0,0,0,0,0,0,0,0,0,0,0,0,0,0,0,0,0],"sum_hessian":[1.12E3,5.64E2,5.56E2,2.06E2,3.58E2,4.42E2,1.14E2,1.94E2,1.2E1,2.64E2,9.4E1,4.36E2,6E0,1.1E2,4E0,8.4E1,1.1E2,2.49E2,1.5E1,9.2E1,2E0,3.08E2,1.28E2,5E0,1E0,8.2E1,2.8E1,5.2E1,3.2E1,7.9E1,3.1E1,2.42E2,7E0,1.4E1,1E0,2.1E2,9.8E1,4.7E1,8.1E1,2E0,3E0,7.3E1,9E0,1.9E1,9E0],"tree_param":{"num_deleted":"0","num_feature":"6","num_nodes":"45","size_leaf_vector":"1"}},{"base_weights":[-5.0726276E2,-1.4955442E5,1.5068152E5,-2.1252362E5,-1.1282968E5,1.6774667E5,8.363326E4,-1.9666244E5,-4.3409356E5,-9.793054E4,-1.5320275E5,1.6981778E5,1.4486554E4,8.998352E4,-7.406927E4,-1.4045597E5,-2.3793169E5,-4.9313637E4,-2.4099787E4,-1.0334815E5,-5.027867E4,-1.579446E5,4.486193E3,1.8076495E5,1.422791E5,2.8456588E4,-3.4666829E3,1.0497511E5,4.3973695E4,-4.122032E3,-1.0273255E4,-1.1438276E4,-1.7807486E4,-2.138276E4,-2.9075656E4,-1.0009632E4,-1.8391984E4,-6.1013433E3,6.3093677E3,-1.7179975E4,-1.3861044E4,1.6883521E4,1.950849E4,1.2529886E4,1.6354239E4,-3.1658127E2,4.5059243E3,9.41053E3,1.3083662E4,2.0443086E2,5.7221943E3],"categories":[],"categories_nodes":[],"categories_segments":[],"categories_sizes":[],"default_left":[0,0,0,0,0,0,0,0,0,0,0,0,0,0,0,0,0,0,0,0,0,0,0,0,0,0,0,0,0,0,0,0,0,0,0,0,0,0,0,0,0,0,0,0,0,0,0,0,0,0,0],"id":7,"left_children":[1,3,5,7,9,11,13,15,17,19,21,23,25,27,29,31,33,-1,-1,35,37,39,-1,41,43,45,-1,47,49,-1,-1,-1,-1,-1,-1,-1,-1,-1,-1,-1,-1,-1,-1,-1,-1,-1,-1,-1,-1,-1,-1],"loss_changes":[2.5283436E13,1.2825993E12,6.2328406E11,6.421039E11,2.0094386E11,1.3815723E11,1.2183208E11,4.1890297E11,2.9367206E10,6.3216026E10,9.630856E10,1.0602257E11,5.7932206E9,7.194719E10,4.731228E8,6.3003034E10,7.916382E10,0E0,0E0,4.368551E10,3.914327E10,1.099432E9,0E0,1.9850592E10,2.6084639E10,3.2927442E9,0E0,1.1019682E10,1.5992259E10,0E0,0E0,0E0,0E0,0E0,0E0,0E0,0E0,0E0,0E0,0E0,0E0,0E0,0E0,0E0,0E0,0E0,0E0,0E0,0E0,0E0,0E0],"parents":[2147483647,0,0,1,1,2,2,3,3,4,4,5,5,6,6,7,7,8,8,9,9,10,10,11,11,12,12,13,13,14,14,15,15,16,16,19,19,20,20,21,21,23,23,24,24,25,25,27,27,28,28],"right_children":[2,4,6,8,10,12,14,16,18,20,22,24,26,28,30,32,34,-1,-1,36,38,40,-1,42,44,46,-1,48,50,-1,-1,-1,-1,-1,-1,-1,-1,-1,-1,-1,-1,-1,-1,-1,-1,-1,-1,-1,-1,-1,-1],"split_conditions":[-2.7492066E5,-6.0598E5,1E0,1E0,1E0,1E0,1E0,1E0,-7.079593E5,-4.75338E5,-4.7168E4,1E0,1.52038E5,1E0,1E0,1E0,1E0,-4.9313637E4,-2.4099787E4,1E0,-3.94464E5,-5.611817E5,4.486193E3,6.8267664E4,4.1824668E4,1E0,-3.4666829E3,-2.5730666E4,-1.4770667E5,-4.122032E3,-1.0273255E4,-1.1438276E4,-1.7807486E4,-2.138276E4,-2.9075656E4,-1.0009632E4,-1.8391984E4,-6.1013433E3,6.3093677E3,-1.7179975E4,-1.3861044E4,1.6883521E4,1.950849E4,1.2529886E4,1.6354239E4,-3.1658127E2,4.5059243E3,9.41053E3,1.3083662E4,2.0443086E2,5.7221943E3],"split_indices":[5,5,2,3,1,3,3,2,5,5,4,1,4,1,1,1,1,0,0,2,4,5,0,5,5,0,0,5,5,0,0,0,0,0,0,0,0,0,0,0,0,0,0,0,0,0,0,0,0,0,0],"split_type":[0,0,0,0,0,0,0,0,0,0,0,0,0,0,0,0,0,0,0,0,0,0,0,0,0,0,0,0,0,0,0,0,0,0,0,0,0,0,0,0,0,0,0,0,0,0,0,0,0,0,0],"sum_hessian":[1.12E3,5.64E2,5.56E2,2.06E2,3.58E2,4.42E2,1.14E2,1.94E2,1.2E1,2.64E2,9.4E1,4.36E2,6E0,1.1E2,4E0,8.4E1,1.1E2,8E0,4E0,2.36E2,2.8E1,9.2E1,2E0,3.08E2,1.28E2,5E0,1E0,8.2E1,2.8E1,3E0,1E0,5.2E1,3.2E1,7.9E1,3.1E1,2.29E2,7E0,2.6E1,2E0,4.9E1,4.3E1,1.75E2,1.33E2,7.5E1,5.3E1,2E0,3E0,6.1E1,2.1E1,7E0,2.1E1],"tree_param":{"num_deleted":"0","num_feature":"6","num_nodes":"51","size_leaf_vector":"1"}},{"base_weights":[-5.7058417E2,-1.328571E5,1.3799333E5,-1.9410866E5,-1.0033544E5,1.0007063E5,1.5816494E5,-1.789312E5,-3.963314E5,-8.554366E4,-1.3834134E5,1.2257487E5,7.455452E4,1.4446411E4,1.7404553E4,-1.2412771E5,-2.1650681E5,-4.49302E5,-2.2171803E4,-8.943342E4,5.4970383E4,-1.4228542E5,4.187114E3,1.2934815E5,1.3141141E4,5.549207E4,1.031953E5,-1.0208472E4,-1.5984432E4,-1.9438871E4,-2.6588828E4,-4.7342582E4,-1.2815569E4,-9.581495E3,-6.367779E3,7.3594023E3,-3.7697556E3,-1.56062295E4,-1.2284307E4,1.4675064E4,1.0584183E4,2.6309158E3,-3.2933484E3,5.912263E3,-3.077571E3,1.0571184E4,7.558102E2],"categories":[],"categories_nodes":[],"categories_segments":[],"categories_sizes":[],"default_left":[0,0,0,0,0,0,0,0,0,0,0,0,0,0,0,0,0,0,0,0,0,0,0,0,0,0,0,0,0,0,0,0,0,0,0,0,0,0,0,0,0,0,0,0,0,0,0],"id":8,"left_children":[1,3,5,7,9,11,13,15,17,19,21,23,25,-1,-1,27,29,31,-1,33,35,37,-1,39,41,43,45,-1,-1,-1,-1,-1,-1,-1,-1,-1,-1,-1,-1,-1,-1,-1,-1,-1,-1,-1,-1],"loss_changes":[2.0566417E13,1.123934E12,4.0337146E11,5.3679017E11,2.0010579E11,1.0168605E11,5.2314505E10,3.5615094E11,2.0623655E10,1.546757E11,7.98779E10,7.3164E10,4.5048037E10,0E0,0E0,4.5091783E10,6.7366814E10,9.053405E9,0E0,3.7782815E10,1.6580831E10,8.150057E9,0E0,2.3329112E10,5.113433E9,1.9985154E10,7.865336E9,0E0,0E0,0E0,0E0,0E0,0E0,0E0,0E0,0E0,0E0,0E0,0E0,0E0,0E0,0E0,0E0,0E0,0E0,0E0,0E0],"parents":[2147483647,0,0,1,1,2,2,3,3,4,4,5,5,6,6,7,7,8,8,9,9,10,10,11,11,12,12,15,15,16,16,17,17,19,19,20,20,21,21,23,23,24,24,25,25,26,26],"right_children":[2,4,6,8,10,12,14,16,18,20,22,24,26,-1,-1,28,30,32,-1,34,36,38,-1,40,42,44,46,-1,-1,-1,-1,-1,-1,-1,-1,-1,-1,-1,-1,-1,-1,-1,-1,-1,-1,-1,-1],"split_conditions":[-1.96464E5,-6.128627E5,1.0518667E4,1E0,1E0,1E0,6.8267664E4,1E0,-7.079593E5,-3.27175E5,4.8855E4,1E0,9.0202E4,1.4446411E4,1.7404553E4,1E0,1E0,-5.35894E5,-2.2171803E4,-4.9448234E5,1.71354E5,-5.611817E5,4.187114E3,1E0,1.52038E5,1E0,8.34E2,-1.0208472E4,-1.5984432E4,-1.9438871E4,-2.6588828E4,-4.7342582E4,-1.2815569E4,-9.581495E3,-6.367779E3,7.3594023E3,-3.7697556E3,-1.56062295E4,-1.2284307E4,1.4675064E4,1.0584183E4,2.6309158E3,-3.2933484E3,5.912263E3,-3.077571E3,1.0571184E4,7.558102E2],"split_indices":[5,5,5,3,1,2,5,2,5,4,4,3,4,0,0,1,1,4,0,5,4,5,0,1,4,3,5,0,0,0,0,0,0,0,0,0,0,0,0,0,0,0,0,0,0,0,0],"split_type":[0,0,0,0,0,0,0,0,0,0,0,0,0,0,0,0,0,0,0,0,0,0,0,0,0,0,0,0,0,0,0,0,0,0,0,0,0,0,0,0,0,0,0,0,0,0,0],"sum_hessian":[1.12E3,5.73E2,5.47E2,1.97E2,3.76E2,1.92E2,3.55E2,1.85E2,1.2E1,2.73E2,1.03E2,1E2,9.2E1,1.96E2,1.59E2,7.7E1,1.08E2,8E0,4E0,2.66E2,7E0,1.01E2,2E0,9.4E1,6E0,5.7E1,3.5E1,5E1,2.7E1,7.8E1,3E1,7E0,1E0,2.11E2,5.5E1,6E0,1E0,5.5E1,4.6E1,5.1E1,4.3E1,5E0,1E0,5.5E1,2E0,3.4E1,1E0],"tree_param":{"num_deleted":"0","num_feature":"6","num_nodes":"47","size_leaf_vector":"1"}},{"base_weights":[-6.205772E2,-1.1990346E5,1.2432285E5,-1.7359947E5,-8.937364E4,9.026439E4,1.424379E5,-1.6008042E5,-3.6303134E5,-9.318028E4,2.1744578E4,1.10560914E5,6.725134E4,1.2880329E5,1.5549888E5,-1.14528586E5,-1.9352028E5,-4.1105606E5,-2.0398059E4,-8.035646E4,-1.2858144E5,4.8466773E4,-8.3485E3,1.1667922E5,1.1732393E4,4.9991734E4,9.31904E4,3.7014177E3,1.291093E4,9.902356E4,1.5724185E4,-9.316812E3,-1.4536424E4,-1.7363945E4,-2.3717486E4,-4.320011E4,-1.2174791E4,-7.7581953E3,-1.5944304E4,-1.44430205E4,-1.1603783E4,7.7762236E3,-2.2402281E2,1.323578E4,9.549819E3,2.4116729E3,-3.1286814E3,1.882892E3,6.0424604E3,9.544269E3,7.1801953E2,1.4072877E4,2.213616E3],"categories":[],"categories_nodes":[],"categories_segments":[],"categories_sizes":[],"default_left":[0,0,0,0,0,0,0,0,0,0,0,0,0,0,0,0,0,0,0,0,0,0,0,0,0,0,0,0,0,0,0,0,0,0,0,0,0,0,0,0,0,0,0,0,0,0,0,0,0,0,0,0,0],"id":9,"left_children":[1,3,5,7,9,11,13,15,17,19,21,23,25,27,29,31,33,35,-1,37,39,41,-1,43,45,47,49,-1,-1,51,-1,-1,-1,-1,-1,-1,-1,-1,-1,-1,-1,-1,-1,-1,-1,-1,-1,-1,-1,-1,-1,-1,-1],"loss_changes":[1.6721856E13,9.254601E11,3.252426E11,4.7200023E11,1.5768538E11,8.271207E10,4.3368055E10,2.7486952E11,1.5451292E10,1.5128356E11,4.06018E10,5.9701985E10,3.6977148E10,2.770862E8,1.8525716E9,4.244321E10,5.5152214E10,1.9407831E9,0E0,4.5558792E10,1.7289708E9,1.6514537E10,0E0,1.8908447E10,4.483886E9,1.7719083E10,6.288638E9,0E0,0E0,2.253765E10,0E0,0E0,0E0,0E0,0E0,0E0,0E0,0E0,0E0,0E0,0E0,0E0,0E0,0E0,0E0,0E0,0E0,0E0,0E0,0E0,0E0,0E0,0E0],"parents":[2147483647,0,0,1,1,2,2,3,3,4,4,5,5,6,6,7,7,8,8,9,9,10,10,11,11,12,12,13,13,14,14,15,15,16,16,17,17,19,19,20,20,21,21,23,23,24,24,25,25,26,26,29,29],"right_children":[2,4,6,8,10,12,14,16,18,20,22,24,26,28,30,32,34,36,-1,38,40,42,-1,44,46,48,50,-1,-1,52,-1,-1,-1,-1,-1,-1,-1,-1,-1,-1,-1,-1,-1,-1,-1,-1,-1,-1,-1,-1,-1,-1,-1],"split_conditions":[-1.96464E5,-6.0598E5,1.0518667E4,1E0,-4.7168E4,1E0,6.4090668E4,1E0,-7.079593E5,1E0,1E0,1E0,9.0202E4,-8.30825E5,-1.98281E5,1E0,1E0,-5.35894E5,-2.0398059E4,1E0,-5.70163E5,-2.1401833E5,-8.3485E3,1E0,1.52038E5,-1.3392633E5,8.34E2,3.7014177E3,1.291093E4,1E0,1.5724185E4,-9.316812E3,-1.4536424E4,-1.7363945E4,-2.3717486E4,-4.320011E4,-1.2174791E4,-7.7581953E3,-1.5944304E4,-1.44430205E4,-1.1603783E4,7.7762236E3,-2.2402281E2,1.323578E4,9.549819E3,2.4116729E3,-3.1286814E3,1.882892E3,6.0424604E3,9.544269E3,7.1801953E2,1.4072877E4,2.213616E3],"split_indices":[5,5,5,3,4,2,5,2,5,1,3,3,4,4,4,1,1,4,0,2,5,5,0,1,4,5,5,0,0,1,0,0,0,0,0,0,0,0,0,0,0,0,0,0,0,0,0,0,0,0,0,0,0],"split_type":[0,0,0,0,0,0,0,0,0,0,0,0,0,0,0,0,0,0,0,0,0,0,0,0,0,0,0,0,0,0,0,0,0,0,0,0,0,0,0,0,0,0,0,0,0,0,0,0,0,0,0,0,0],"sum_hessian":[1.12E3,5.73E2,5.47E2,2.06E2,3.67E2,1.92E2,3.55E2,1.94E2,1.2E1,3.55E2,1.2E1,1E2,9.2E1,1.79E2,1.76E2,8.4E1,1.1E2,8E0,4E0,2.63E2,9.2E1,1E1,2E0,9.4E1,6E0,5.7E1,3.5E1,1E0,1.78E2,7E0,1.69E2,5.2E1,3.2E1,7.9E1,3.1E1,7E0,1E0,2.56E2,7E0,3.6E1,5.6E1,6E0,4E0,5.1E1,4.3E1,5E0,1E0,1.5E1,4.2E1,3.4E1,1E0,4E0,3E0],"tree_param":{"num_deleted":"0","num_feature":"6","num_nodes":"53","size_leaf_vector":"1"}},{"base_weights":[-6.4984344E2,-1.0824631E5,1.1205276E5,-1.5870862E5,-8.145644E4,8.144653E4,1.28330695E5,-1.4570467E5,-3.3255688E5,-1.0046984E5,-6.008915E4,9.972332E4,6.072178E4,1.197227E5,1.4601488E5,-1.0104659E5,-1.763251E5,-3.761032E4,-1.8766213E4,-8.551082E4,-1.2058858E4,-6.589084E4,1.9508867E4,1.0525114E5,1.0456721E4,4.512921E4,8.415643E4,1.2122891E5,8.351747E4,3.9997957E3,1.4660964E4,-8.2942295E3,-1.304135E4,-1.5805174E4,-2.1720475E4,-1.075476E3,-8.94548E3,-6.4345654E3,-1.6196909E4,4.430666E3,-7.7919336E3,1.1937655E4,8.616542E3,2.2107E3,-2.9722468E3,4.8347E3,-2.9979272E3,6.879582E3,1.0914466E4,1.2679376E4,1.0755855E4,1.4174401E3,1.1276168E4],"categories":[],"categories_nodes":[],"categories_segments":[],"categories_sizes":[],"default_left":[0,0,0,0,0,0,0,0,0,0,0,0,0,0,0,0,0,0,0,0,0,0,0,0,0,0,0,0,0,0,0,0,0,0,0,0,0,0,0,0,0,0,0,0,0,0,0,0,0,0,0,0,0],"id":10,"left_children":[1,3,5,7,9,11,13,15,17,19,21,23,25,27,29,31,33,-1,-1,35,-1,37,39,41,43,45,47,49,51,-1,-1,-1,-1,-1,-1,-1,-1,-1,-1,-1,-1,-1,-1,-1,-1,-1,-1,-1,-1,-1,-1,-1,-1],"loss_changes":[1.3605826E13,7.630514E11,2.62565E11,3.9916614E11,1.4712465E11,6.704949E10,3.671117E10,2.3652834E11,1.1444945E10,4.927783E10,8.4410106E10,4.8737812E10,3.0184866E10,3.2359055E9,1.1979981E9,3.0653284E10,4.709443E10,0E0,0E0,3.3533723E10,0E0,1.4519239E10,3.48604E10,1.5325266E10,3.9337656E9,1.5467053E10,6.3093637E9,4.0873492E9,2.4764154E10,0E0,0E0,0E0,0E0,0E0,0E0,0E0,0E0,0E0,0E0,0E0,0E0,0E0,0E0,0E0,0E0,0E0,0E0,0E0,0E0,0E0,0E0,0E0,0E0],"parents":[2147483647,0,0,1,1,2,2,3,3,4,4,5,5,6,6,7,7,8,8,9,9,10,10,11,11,12,12,13,13,14,14,15,15,16,16,19,19,21,21,22,22,23,23,24,24,25,25,26,26,27,27,28,28],"right_children":[2,4,6,8,10,12,14,16,18,20,22,24,26,28,30,32,34,-1,-1,36,-1,38,40,42,44,46,48,50,52,-1,-1,-1,-1,-1,-1,-1,-1,-1,-1,-1,-1,-1,-1,-1,-1,-1,-1,-1,-1,-1,-1,-1,-1],"split_conditions":[-1.96464E5,-6.128627E5,1.0518667E4,1E0,-5.32103E5,1E0,8.3162664E4,1E0,-7.079593E5,1E0,-4.7168E4,1E0,9.0202E4,1E0,-3.94464E5,1E0,1E0,-3.761032E4,-1.8766213E4,-7.8703E5,-1.2058858E4,1E0,1E0,1E0,1.52038E5,1E0,1.58365E5,1E0,1E0,3.9997957E3,1.4660964E4,-8.2942295E3,-1.304135E4,-1.5805174E4,-2.1720475E4,-1.075476E3,-8.94548E3,-6.4345654E3,-1.6196909E4,4.430666E3,-7.7919336E3,1.1937655E4,8.616542E3,2.2107E3,-2.9722468E3,4.8347E3,-2.9979272E3,6.879582E3,1.0914466E4,1.2679376E4,1.0755855E4,1.4174401E3,1.1276168E4],"split_indices":[5,5,5,3,5,2,5,2,5,1,4,3,4,2,4,1,1,0,0,4,0,2,3,1,4,3,4,1,0,0,0,0,0,0,0,0,0,0,0,0,0,0,0,0,0,0,0,0,0,0,0,0,0],"split_type":[0,0,0,0,0,0,0,0,0,0,0,0,0,0,0,0,0,0,0,0,0,0,0,0,0,0,0,0,0,0,0,0,0,0,0,0,0,0,0,0,0,0,0,0,0,0,0,0,0,0,0,0,0],"sum_hessian":[1.12E3,5.73E2,5.47E2,1.97E2,3.76E2,1.92E2,3.55E2,1.85E2,1.2E1,1.97E2,1.79E2,1E2,9.2E1,2.44E2,1.11E2,7.7E1,1.08E2,8E0,4E0,1.16E2,8.1E1,1.67E2,1.2E1,9.4E1,6E0,5.7E1,3.5E1,2.32E2,1.2E1,1E0,1.1E2,5E1,2.7E1,7.8E1,3E1,6E0,1.1E2,1.66E2,1E0,1E1,2E0,5.1E1,4.3E1,5E0,1E0,5.5E1,2E0,2.4E1,1.1E1,1.59E2,7.3E1,4E0,8E0],"tree_param":{"num_deleted":"0","num_feature":"6","num_nodes":"53","size_leaf_vector":"1"}},{"base_weights":[-6.464988E2,-9.7706195E4,1.010194E5,-1.5462934E5,-7.8106E4,7.350615E4,1.1565153E5,-1.412452E5,-3.426718E5,-9.498815E4,-5.422464E4,3.257481E4,8.083968E4,1.053061E5,1.27666516E5,-8.457479E4,-1.6515752E5,-3.6129195E4,-9.685534E3,-8.427015E4,-1.110251E5,-5.9436473E4,1.729942E4,5.6191133E4,1.2396852E4,8.351434E4,9.302259E3,1.1023707E5,9.2791305E4,1.0873671E5,1.3435103E5,-6.407894E3,-1.2245341E4,-1.8912973E4,-1.4543742E4,-8.0762383E3,-1.7264918E4,-8.546023E3,-1.1871484E4,-5.794962E3,-1.53870625E4,4.0278782E3,-7.272471E3,7.6654775E3,4.03402E3,-3.638655E1,4.564749E3,9.738713E3,6.342572E3,-4.678104E2,4.659222E3,1.1304826E4,7.176747E3,4.490011E3,9.532E3,1.15649375E4,7.893734E3,1.3624567E4,7.753987E3],"categories":[],"categories_nodes":[],"categories_segments":[],"categories_sizes":[],"default_left":[0,0,0,0,0,0,0,0,0,0,0,0,0,0,0,0,0,0,0,0,0,0,0,0,0,0,0,0,0,0,0,0,0,0,0,0,0,0,0,0,0,0,0,0,0,0,0,0,0,0,0,0,0,0,0,0,0,0,0],"id":11,"left_children":[1,3,5,7,9,11,13,15,17,19,21,23,25,27,29,31,33,-1,-1,35,37,39,41,43,45,47,49,51,53,55,57,-1,-1,-1,-1,-1,-1,-1,-1,-1,-1,-1,-1,-1,-1,-1,-1,-1,-1,-1,-1,-1,-1,-1,-1,-1,-1,-1,-1],"loss_changes":[1.1071519E13,6.2833715E11,2.1211172E11,3.1905022E11,1.6780886E11,5.5299736E10,3.0806639E10,1.7303863E11,6.201213E9,3.3614987E10,6.8127064E10,1.407581E10,3.041126E10,1.927938E9,5.6368824E9,2.5536561E10,1.7876124E10,0E0,0E0,3.3798291E10,8.923644E9,1.4672134E10,2.9822323E10,1.4488781E9,7.6540436E9,3.757677E10,3.8672538E9,6.5944945E9,3.2284672E9,5.5259955E8,1.7060332E9,0E0,0E0,0E0,0E0,0E0,0E0,0E0,0E0,0E0,0E0,0E0,0E0,0E0,0E0,0E0,0E0,0E0,0E0,0E0,0E0,0E0,0E0,0E0,0E0,0E0,0E0,0E0,0E0],"parents":[2147483647,0,0,1,1,2,2,3,3,4,4,5,5,6,6,7,7,8,8,9,9,10,10,11,11,12,12,13,13,14,14,15,15,16,16,19,19,20,20,21,21,22,22,23,23,24,24,25,25,26,26,27,27,28,28,29,29,30,30],"right_children":[2,4,6,8,10,12,14,16,18,20,22,24,26,28,30,32,34,-1,-1,36,38,40,42,44,46,48,50,52,54,56,58,-1,-1,-1,-1,-1,-1,-1,-1,-1,-1,-1,-1,-1,-1,-1,-1,-1,-1,-1,-1,-1,-1,-1,-1,-1,-1,-1,-1],"split_conditions":[-1.96464E5,-6.625197E5,1.0518667E4,1E0,-5.32103E5,-1.3392633E5,6.8267664E4,1E0,-5.35894E5,1E0,-4.7168E4,-1.61796E5,1E0,1E0,-2.4278E4,1E0,-7.95481E5,-3.6129195E4,-9.685534E3,1E0,-8.44078E5,1E0,1E0,-1.8550867E5,1.1202E5,1E0,6.1256665E3,1E0,1.4789667E4,1E0,1.71354E5,-6.407894E3,-1.2245341E4,-1.8912973E4,-1.4543742E4,-8.0762383E3,-1.7264918E4,-8.546023E3,-1.1871484E4,-5.794962E3,-1.53870625E4,4.0278782E3,-7.272471E3,7.6654775E3,4.03402E3,-3.638655E1,4.564749E3,9.738713E3,6.342572E3,-4.678104E2,4.659222E3,1.1304826E4,7.176747E3,4.490011E3,9.532E3,1.15649375E4,7.893734E3,1.3624567E4,7.753987E3],"split_indices":[5,5,5,3,5,5,5,2,4,1,4,5,3,1,4,1,5,0,0,3,4,2,3,5,4,2,5,2,5,1,4,0,0,0,0,0,0,0,0,0,0,0,0,0,0,0,0,0,0,0,0,0,0,0,0,0,0,0,0],"split_type":[0,0,0,0,0,0,0,0,0,0,0,0,0,0,0,0,0,0,0,0,0,0,0,0,0,0,0,0,0,0,0,0,0,0,0,0,0,0,0,0,0,0,0,0,0,0,0,0,0,0,0,0,0,0,0,0,0,0,0],"sum_hessian":[1.12E3,5.73E2,5.47E2,1.45E2,4.28E2,1.92E2,3.55E2,1.37E2,8E0,2.49E2,1.79E2,3E1,1.62E2,1.96E2,1.59E2,4.2E1,9.5E1,7E0,1E0,1.53E2,9.6E1,1.67E2,1.2E1,1.3E1,1.7E1,1.56E2,6E0,1.35E2,6.1E1,4.6E1,1.13E2,2.9E1,1.3E1,3.9E1,5.6E1,1.49E2,4E0,2.5E1,7.1E1,1.66E2,1E0,1E1,2E0,4E0,9E0,1.3E1,4E0,9E1,6.6E1,5E0,1E0,1.24E2,1.1E1,4E0,5.7E1,3.5E1,1.1E1,1.08E2,5E0],"tree_param":{"num_deleted":"0","num_feature":"6","num_nodes":"59","size_leaf_vector":"1"}},{"base_weights":[-6.3382355E2,-8.8228445E4,9.11179E4,-1.2996856E5,-6.607255E4,6.634466E4,1.0429239E5,-1.18914695E5,-2.7812634E5,-7.844105E4,-4.3832535E4,8.1166766E4,4.9534137E4,9.71098E4,1.1907313E5,-8.26149E4,-1.4379973E5,-3.8968387E4,-2.056907E4,-6.6670875E4,-9.710979E4,-4.9633727E4,1.5319896E4,8.5632086E4,8.970808E3,6.0137062E4,1.9898258E4,5.253372E4,9.781958E4,3.221559E3,1.195654E5,-6.784147E3,-1.0657312E4,-1.2779731E4,-1.799414E4,-4.0339938E2,-7.0612417E3,-1.0821934E4,-8.537876E3,-4.7676304E3,-1.461771E4,3.6617078E3,-6.78764E3,9.8602705E3,6.8356987E3,-4.2882602E2,4.426261E3,6.323014E3,-2.7956396E3,3.2088228E3,-3.7717263E3,6.519095E3,-5.376219E2,9.90146E3,6.933629E3,1.1555252E4,1.6267792E4],"categories":[],"categories_nodes":[],"categories_segments":[],"categories_sizes":[],"default_left":[0,0,0,0,0,0,0,0,0,0,0,0,0,0,0,0,0,0,0,0,0,0,0,0,0,0,0,0,0,0,0,0,0,0,0,0,0,0,0,0,0,0,0,0,0,0,0,0,0,0,0,0,0,0,0,0,0],"id":12,"left_children":[1,3,5,7,9,11,13,15,17,19,21,23,25,27,29,31,33,-1,-1,35,37,39,41,43,45,47,49,51,53,-1,55,-1,-1,-1,-1,-1,-1,-1,-1,-1,-1,-1,-1,-1,-1,-1,-1,-1,-1,-1,-1,-1,-1,-1,-1,-1,-1],"loss_changes":[9.017469E12,5.222417E11,1.7193448E11,2.9119454E11,1.0026523E11,4.4068766E10,2.6230653E10,1.5613768E11,2.4895357E10,4.648154E10,4.77726E10,3.1791907E10,2.8026503E10,2.6130514E9,9.3690266E8,2.0377666E10,4.0044593E10,0E0,0E0,3.6994875E10,2.6200637E9,1.6652861E10,2.551944E10,1.4546371E10,3.4653645E9,2.0296335E10,1.94709E10,4.7483566E9,1.3036421E9,0E0,4.0593E8,0E0,0E0,0E0,0E0,0E0,0E0,0E0,0E0,0E0,0E0,0E0,0E0,0E0,0E0,0E0,0E0,0E0,0E0,0E0,0E0,0E0,0E0,0E0,0E0,0E0,0E0],"parents":[2147483647,0,0,1,1,2,2,3,3,4,4,5,5,6,6,7,7,8,8,9,9,10,10,11,11,12,12,13,13,14,14,15,15,16,16,19,19,20,20,21,21,22,22,23,23,24,24,25,25,26,26,27,27,28,28,30,30],"right_children":[2,4,6,8,10,12,14,16,18,20,22,24,26,28,30,32,34,-1,-1,36,38,40,42,44,46,48,50,52,54,-1,56,-1,-1,-1,-1,-1,-1,-1,-1,-1,-1,-1,-1,-1,-1,-1,-1,-1,-1,-1,-1,-1,-1,-1,-1,-1,-1],"split_conditions":[-1.96464E5,-6.128627E5,1.0518667E4,1E0,-5.2022966E5,1E0,8.3162664E4,1E0,-8.481543E5,1E0,-4.7168E4,1E0,1E0,-3.49322E5,-3.94464E5,1E0,1E0,-3.8968387E4,-2.056907E4,-7.8703E5,-5.70163E5,1E0,1E0,1E0,6.1256665E3,1E0,-5.9396668E4,-3.94464E5,1E0,3.221559E3,1.39015E5,-6.784147E3,-1.0657312E4,-1.2779731E4,-1.799414E4,-4.0339938E2,-7.0612417E3,-1.0821934E4,-8.537876E3,-4.7676304E3,-1.461771E4,3.6617078E3,-6.78764E3,9.8602705E3,6.8356987E3,-4.2882602E2,4.426261E3,6.323014E3,-2.7956396E3,3.2088228E3,-3.7717263E3,6.519095E3,-5.376219E2,9.90146E3,6.933629E3,1.1555252E4,1.6267792E4],"split_indices":[5,5,5,3,5,2,5,2,5,1,4,3,1,4,4,1,1,0,0,4,5,2,3,1,5,3,5,4,2,0,5,0,0,0,0,0,0,0,0,0,0,0,0,0,0,0,0,0,0,0,0,0,0,0,0,0,0],"split_type":[0,0,0,0,0,0,0,0,0,0,0,0,0,0,0,0,0,0,0,0,0,0,0,0,0,0,0,0,0,0,0,0,0,0,0,0,0,0,0,0,0,0,0,0,0,0,0,0,0,0,0,0,0,0,0,0,0],"sum_hessian":[1.12E3,5.73E2,5.47E2,1.97E2,3.76E2,1.92E2,3.55E2,1.85E2,1.2E1,2.4E2,1.36E2,1E2,9.2E1,2.44E2,1.11E2,7.7E1,1.08E2,3E0,9E0,1.5E2,9E1,1.24E2,1.2E1,9.4E1,6E0,6.7E1,2.5E1,5E0,2.39E2,1E0,1.1E2,5E1,2.7E1,7.8E1,3E1,9E0,1.41E2,4.2E1,4.8E1,1.23E2,1E0,1E1,2E0,5.1E1,4.3E1,5E0,1E0,6.5E1,2E0,2.1E1,4E0,4E0,1E0,2.27E2,1.2E1,1.04E2,6E0],"tree_param":{"num_deleted":"0","num_feature":"6","num_nodes":"57","size_leaf_vector":"1"}},{"base_weights":[-6.4142035E2,-7.9679266E4,8.214757E4,-1.1751591E5,-5.9596152E4,4.7427176E4,8.979179E4,-1.0728244E5,-2.5489353E5,-5.009072E4,-8.406628E4,5.085316E4,-1.5293117E4,8.074006E4,1.031945E5,-7.457701E4,-1.29702086E5,-3.604576E4,-1.8717855E4,-5.47503E4,5.771351E3,-8.6473914E4,2.5815417E3,2.700055E4,5.932698E4,1.4031766E3,-3.34635E3,8.7420766E4,6.715935E4,1.0072683E5,1.4873409E4,-5.103709E3,-8.822619E3,-1.1517934E4,-1.6252773E4,-5.243771E3,-1.1162081E4,-1.7311201E3,4.1036284E3,-6.93153E3,-9.202968E3,4.591437E3,6.1581195E2,8.261969E3,5.029687E3,8.849047E3,1.8498563E3,4.284721E3,7.4882837E3,6.3693716E3,1.0191913E4],"categories":[],"categories_nodes":[],"categories_segments":[],"categories_sizes":[],"default_left":[0,0,0,0,0,0,0,0,0,0,0,0,0,0,0,0,0,0,0,0,0,0,0,0,0,0,0,0,0,0,0,0,0,0,0,0,0,0,0,0,0,0,0,0,0,0,0,0,0,0,0],"id":13,"left_children":[1,3,5,7,9,11,13,15,17,19,21,23,25,27,29,31,33,-1,-1,35,37,39,-1,41,43,-1,-1,45,47,49,-1,-1,-1,-1,-1,-1,-1,-1,-1,-1,-1,-1,-1,-1,-1,-1,-1,-1,-1,-1,-1],"loss_changes":[7.3417674E12,4.2916617E11,1.4118656E11,2.5101284E11,8.347897E10,2.2480437E10,4.6018593E10,1.2671045E11,2.545759E10,7.163648E10,2.9746135E10,1.7801937E10,3.6666179E9,1.880726E10,4.9089085E9,2.0558643E10,3.3242612E10,0E0,0E0,2.7421049E10,1.8618487E10,3.3444987E9,0E0,1.0360922E10,1.0567991E10,0E0,0E0,1.1560026E10,1.4442299E10,1.0589307E9,0E0,0E0,0E0,0E0,0E0,0E0,0E0,0E0,0E0,0E0,0E0,0E0,0E0,0E0,0E0,0E0,0E0,0E0,0E0,0E0,0E0],"parents":[2147483647,0,0,1,1,2,2,3,3,4,4,5,5,6,6,7,7,8,8,9,9,10,10,11,11,12,12,13,13,14,14,15,15,16,16,19,19,20,20,21,21,23,23,24,24,27,27,28,28,29,29],"right_children":[2,4,6,8,10,12,14,16,18,20,22,24,26,28,30,32,34,-1,-1,36,38,40,-1,42,44,-1,-1,46,48,50,-1,-1,-1,-1,-1,-1,-1,-1,-1,-1,-1,-1,-1,-1,-1,-1,-1,-1,-1,-1,-1],"split_conditions":[-1.96464E5,-6.128627E5,-4.3979332E4,1E0,1E0,1E0,6.4090668E4,1E0,-8.481543E5,-4.6086766E5,4.8855E4,-1.4461967E5,1.0282E4,1E0,1.39015E5,-6.821153E5,1E0,-3.604576E4,-1.8717855E4,1E0,-4.26833E5,-8.30825E5,2.5815417E3,-1.61796E5,1E0,1.4031766E3,-3.34635E3,1E0,-4.4086665E3,-1.98281E5,1.4873409E4,-5.103709E3,-8.822619E3,-1.1517934E4,-1.6252773E4,-5.243771E3,-1.1162081E4,-1.7311201E3,4.1036284E3,-6.93153E3,-9.202968E3,4.591437E3,6.1581195E2,8.261969E3,5.029687E3,8.849047E3,1.8498563E3,4.284721E3,7.4882837E3,6.3693716E3,1.0191913E4],"split_indices":[5,5,5,3,1,3,5,2,5,5,4,5,4,1,5,5,1,0,0,2,4,4,0,5,2,0,0,3,5,4,0,0,0,0,0,0,0,0,0,0,0,0,0,0,0,0,0,0,0,0,0],"split_type":[0,0,0,0,0,0,0,0,0,0,0,0,0,0,0,0,0,0,0,0,0,0,0,0,0,0,0,0,0,0,0,0,0,0,0,0,0,0,0,0,0,0,0,0,0,0,0,0,0,0,0],"sum_hessian":[1.12E3,5.73E2,5.47E2,1.97E2,3.76E2,1E2,4.47E2,1.85E2,1.2E1,2.73E2,1.03E2,9.5E1,5E0,2.71E2,1.76E2,7.7E1,1.08E2,3E0,9E0,2.52E2,2.1E1,1.01E2,2E0,2.6E1,6.9E1,2E0,3E0,1.78E2,9.3E1,1.7E2,6E0,3E1,4.7E1,7.8E1,3E1,2.44E2,8E0,1.3E1,8E0,2.8E1,7.3E1,1.3E1,1.3E1,1.7E1,5.2E1,1.75E2,3E0,2.4E1,6.9E1,7E0,1.63E2],"tree_param":{"num_deleted":"0","num_feature":"6","num_nodes":"51","size_leaf_vector":"1"}},{"base_weights":[-6.250793E2,-7.192745E4,7.406139E4,-1.1509361E5,-5.7069207E4,4.2848375E4,8.093294E4,-1.0437455E5,-2.6666434E5,-6.966766E4,-3.925431E4,4.5960543E4,-1.4087672E4,7.274867E4,9.305265E4,-6.273091E4,-1.2194019E5,-2.967074E4,-1.0767581E4,1.4071125E3,-7.082906E4,-4.3069125E4,1.3064406E4,5.468187E4,2.6809078E4,1.3096312E3,-3.0953743E3,7.873846E4,6.056866E4,9.075099E4,1.3598547E4,-4.609802E3,-9.756852E3,-1.6737252E4,-1.1280775E4,4.6718823E3,-4.437364E3,-7.473715E3,-4.8169805E3,-4.171904E3,-1.3426679E4,4.690441E3,-3.4233E3,8.1253647E3,4.6476357E3,5.4427167E2,4.534159E3,7.929853E3,-1.0477227E3,7.186833E3,4.3517407E3,6.3672803E3,9.221467E3],"categories":[],"categories_nodes":[],"categories_segments":[],"categories_sizes":[],"default_left":[0,0,0,0,0,0,0,0,0,0,0,0,0,0,0,0,0,0,0,0,0,0,0,0,0,0,0,0,0,0,0,0,0,0,0,0,0,0,0,0,0,0,0,0,0,0,0,0,0,0,0,0,0],"id":14,"left_children":[1,3,5,7,9,11,13,15,17,19,21,23,25,27,29,31,33,-1,-1,35,37,39,41,43,45,-1,-1,47,49,51,-1,-1,-1,-1,-1,-1,-1,-1,-1,-1,-1,-1,-1,-1,-1,-1,-1,-1,-1,-1,-1,-1,-1],"loss_changes":[5.975014E12,3.6157968E11,1.1406803E11,2.0937284E11,9.355002E10,1.8544116E10,3.7667996E10,9.329718E10,1.104026E10,2.0736377E10,3.6488184E10,1.4568554E10,3.1563018E9,1.5074984E10,5.149688E9,2.0418658E10,2.0950286E10,0E0,0E0,1.2445104E10,1.8184405E10,1.5083438E10,2.2412757E10,1.039591E10,1.2424331E10,0E0,0E0,9.774825E9,1.4983791E10,9.057075E8,0E0,0E0,0E0,0E0,0E0,0E0,0E0,0E0,0E0,0E0,0E0,0E0,0E0,0E0,0E0,0E0,0E0,0E0,0E0,0E0,0E0,0E0,0E0],"parents":[2147483647,0,0,1,1,2,2,3,3,4,4,5,5,6,6,7,7,8,8,9,9,10,10,11,11,12,12,13,13,14,14,15,15,16,16,19,19,20,20,21,21,22,22,23,23,24,24,27,27,28,28,29,29],"right_children":[2,4,6,8,10,12,14,16,18,20,22,24,26,28,30,32,34,-1,-1,36,38,40,42,44,46,-1,-1,48,50,52,-1,-1,-1,-1,-1,-1,-1,-1,-1,-1,-1,-1,-1,-1,-1,-1,-1,-1,-1,-1,-1,-1,-1],"split_conditions":[-1.96464E5,-6.625197E5,-4.3979332E4,1E0,-5.32103E5,1E0,6.4090668E4,1E0,-5.50073E5,-6.61433E5,-4.7168E4,1E0,1.0282E4,1E0,1.39015E5,-6.821153E5,-8.390043E5,-2.967074E4,-1.0767581E4,2E0,-4.88605E5,1E0,-2.1401833E5,1.5344E4,2.77E2,1.3096312E3,-3.0953743E3,6.3012668E4,-2.0572E4,-1.62609E5,1.3598547E4,-4.609802E3,-9.756852E3,-1.6737252E4,-1.1280775E4,4.6718823E3,-4.437364E3,-7.473715E3,-4.8169805E3,-4.171904E3,-1.3426679E4,4.690441E3,-3.4233E3,8.1253647E3,4.6476357E3,5.4427167E2,4.534159E3,7.929853E3,-1.0477227E3,7.186833E3,4.3517407E3,6.3672803E3,9.221467E3],"split_indices":[5,5,5,3,5,3,5,2,4,5,4,1,4,1,5,5,5,0,0,0,4,2,5,4,4,0,0,5,4,4,0,0,0,0,0,0,0,0,0,0,0,0,0,0,0,0,0,0,0,0,0,0,0],"split_type":[0,0,0,0,0,0,0,0,0,0,0,0,0,0,0,0,0,0,0,0,0,0,0,0,0,0,0,0,0,0,0,0,0,0,0,0,0,0,0,0,0,0,0,0,0,0,0,0,0,0,0,0,0],"sum_hessian":[1.12E3,5.73E2,5.47E2,1.45E2,4.28E2,1E2,4.47E2,1.37E2,8E0,2.49E2,1.79E2,9.5E1,5E0,2.71E2,1.76E2,4.2E1,9.5E1,6E0,2E0,4E0,2.45E2,1.67E2,1.2E1,6.4E1,3.1E1,2E0,3E0,1.78E2,9.3E1,1.7E2,6E0,3E1,1.2E1,1.3E1,8.2E1,2E0,2E0,2.07E2,3.8E1,1.66E2,1E0,7E0,5E0,1.3E1,5.1E1,1.5E1,1.6E1,1.77E2,1E0,5.4E1,3.9E1,1.1E1,1.59E2],"tree_param":{"num_deleted":"0","num_feature":"6","num_nodes":"53","size_leaf_vector":"1"}},{"base_weights":[-6.049815E2,-6.492846E4,6.6771445E4,-6.0858758E4,-2.0305573E5,7.326882E4,3.8987402E4,-9.424424E4,-4.979701E4,-3.4101617E4,-1.5898881E5,7.420114E4,4.598638E3,2.5946938E4,5.9028453E4,-5.6791918E4,-1.1003805E5,-5.431038E4,-2.7590671E3,-6.2073906E3,-1.6996848E4,7.986403E4,6.0061324E4,-7.021461E3,3.7159617E3,3.7983496E3,3.2386752E4,3.5922176E4,7.0977375E4,-3.986815E3,-8.900058E3,-1.3138632E4,-9.442327E3,-4.6995664E3,-7.1501577E3,-1.7791965E3,3.1294873E3,8.934577E2,8.053022E3,4.223036E3,6.503808E3,1.7681761E3,-3.7618606E3,3.5672207E3,-1.3932697E3,7.6602964E3,2.591536E3,4.2877817E3,-3.4206218E3,4.0982173E3,7.792683E3],"categories":[],"categories_nodes":[],"categories_segments":[],"categories_sizes":[],"default_left":[0,0,0,0,0,0,0,0,0,0,0,0,0,0,0,0,0,0,0,0,0,0,0,0,0,0,0,0,0,0,0,0,0,0,0,0,0,0,0,0,0,0,0,0,0,0,0,0,0,0,0],"id":15,"left_children":[1,3,5,7,9,11,13,15,17,-1,19,21,23,25,27,29,31,33,35,-1,-1,37,39,41,-1,43,45,47,49,-1,-1,-1,-1,-1,-1,-1,-1,-1,-1,-1,-1,-1,-1,-1,-1,-1,-1,-1,-1,-1,-1],"loss_changes":[4.862622E12,3.103093E11,9.607001E10,2.0174642E11,4.3054137E10,2.8020834E10,2.6170933E10,7.537977E10,8.944052E10,0E0,4.346675E9,3.0194794E10,2.9094474E9,9.290748E9,8.770224E9,1.9890668E10,1.9595526E10,4.5053116E10,2.0010113E10,0E0,0E0,1.3881442E10,8.700953E9,5.2002514E9,0E0,9.539519E9,1.2607967E10,9.271296E9,2.2261023E9,0E0,0E0,0E0,0E0,0E0,0E0,0E0,0E0,0E0,0E0,0E0,0E0,0E0,0E0,0E0,0E0,0E0,0E0,0E0,0E0,0E0,0E0],"parents":[2147483647,0,0,1,1,2,2,3,3,4,4,5,5,6,6,7,7,8,8,10,10,11,11,12,12,13,13,14,14,15,15,16,16,17,17,18,18,21,21,22,22,23,23,25,25,26,26,27,27,28,28],"right_children":[2,4,6,8,10,12,14,16,18,-1,20,22,24,26,28,30,32,34,36,-1,-1,38,40,42,-1,44,46,48,50,-1,-1,-1,-1,-1,-1,-1,-1,-1,-1,-1,-1,-1,-1,-1,-1,-1,-1,-1,-1,-1,-1],"split_conditions":[-1.96464E5,1E0,1E0,-6.625197E5,-9.08103E5,1E0,9.0202E4,1E0,-4.75338E5,-3.4101617E4,1E0,1E0,6.1256665E3,-1.3392633E5,-1.13336336E5,1E0,-7.986107E5,1E0,-3.94464E5,-6.2073906E3,-1.6996848E4,-1.3392633E5,-4.4086665E3,1.0282E4,3.7159617E3,-1.61796E5,-1.1835E5,-1.1835E5,1.18261E5,-3.986815E3,-8.900058E3,-1.3138632E4,-9.442327E3,-4.6995664E3,-7.1501577E3,-1.7791965E3,3.1294873E3,8.934577E2,8.053022E3,4.223036E3,6.503808E3,1.7681761E3,-3.7618606E3,3.5672207E3,-1.3932697E3,7.6602964E3,2.591536E3,4.2877817E3,-3.4206218E3,4.0982173E3,7.792683E3],"split_indices":[5,3,2,5,5,3,4,2,5,0,0,1,5,5,5,1,5,1,4,0,0,5,5,4,0,5,5,5,4,0,0,0,0,0,0,0,0,0,0,0,0,0,0,0,0,0,0,0,0,0,0],"split_type":[0,0,0,0,0,0,0,0,0,0,0,0,0,0,0,0,0,0,0,0,0,0,0,0,0,0,0,0,0,0,0,0,0,0,0,0,0,0,0,0,0,0,0,0,0,0,0,0,0,0,0],"sum_hessian":[1.12E3,5.73E2,5.47E2,5.58E2,1.5E1,4.42E2,1.05E2,1.37E2,4.21E2,2E0,1.3E1,4.36E2,6E0,6.5E1,4E1,4.2E1,9.5E1,3.84E2,3.7E1,2E0,1.1E1,3.08E2,1.28E2,5E0,1E0,1.5E1,5E1,1.5E1,2.5E1,2.9E1,1.3E1,3.7E1,5.8E1,2.72E2,1.12E2,2.6E1,1.1E1,3E0,3.05E2,3E1,9.8E1,3E0,2E0,5E0,1E1,5E0,4.5E1,1.4E1,1E0,6E0,1.9E1],"tree_param":{"num_deleted":"0","num_feature":"6","num_nodes":"51","size_leaf_vector":"1"}},{"base_weights":[-5.950561E2,-5.861553E4,6.01793E4,-5.485511E4,-1.8633175E5,4.355137E4,6.9024836E4,-7.722517E4,-4.106974E4,-3.1828176E4,-1.4474734E5,1.6717809E4,4.83875E4,6.556362E4,8.843875E4,-5.612288E4,-9.521637E4,-4.4724984E4,7.9450454E3,-5.7935645E3,-1.54388E4,5.4880703E3,9.031428E3,6.838708E4,4.3172547E4,6.665967E4,3.7941527E4,9.19275E3,2.4464E4,-4.2888423E3,-7.658729E3,-8.353685E3,-1.2216963E4,-3.8935117E3,-6.004986E3,-1.0177712E3,2.8426177E3,5.6380013E1,2.3370017E3,-9.3159966E1,7.5590103E3,5.2536025E3,2.32516E3,6.406238E3,8.342196E3,2.2600967E3,6.1034336E3,3.2087334E3,7.9700096E1],"categories":[],"categories_nodes":[],"categories_segments":[],"categories_sizes":[],"default_left":[0,0,0,0,0,0,0,0,0,0,0,0,0,0,0,0,0,0,0,0,0,0,0,0,0,0,0,0,0,0,0,0,0,0,0,0,0,0,0,0,0,0,0,0,0,0,0,0,0],"id":16,"left_children":[1,3,5,7,9,11,13,15,17,-1,19,21,23,25,27,29,31,33,35,-1,-1,-1,37,39,41,43,45,-1,47,-1,-1,-1,-1,-1,-1,-1,-1,-1,-1,-1,-1,-1,-1,-1,-1,-1,-1,-1,-1],"loss_changes":[3.9563496E12,2.6545186E11,7.759528E10,1.6921264E11,4.1722577E10,2.4236818E10,1.8123325E10,7.514305E10,6.2703403E10,0E0,2.772304E9,8.59772E9,1.4047937E10,6.735266E9,9.133916E9,2.3798809E10,2.5366888E10,2.6410156E10,9.568677E9,0E0,0E0,0E0,3.2649976E9,1.6048161E10,2.3400317E10,7.4119905E9,3.580158E9,0E0,6.961121E8,0E0,0E0,0E0,0E0,0E0,0E0,0E0,0E0,0E0,0E0,0E0,0E0,0E0,0E0,0E0,0E0,0E0,0E0,0E0,0E0],"parents":[2147483647,0,0,1,1,2,2,3,3,4,4,5,5,6,6,7,7,8,8,10,10,11,11,12,12,13,13,14,14,15,15,16,16,17,17,18,18,22,22,23,23,24,24,25,25,26,26,28,28],"right_children":[2,4,6,8,10,12,14,16,18,-1,20,22,24,26,28,30,32,34,36,-1,-1,-1,38,40,42,44,46,-1,48,-1,-1,-1,-1,-1,-1,-1,-1,-1,-1,-1,-1,-1,-1,-1,-1,-1,-1,-1,-1],"split_conditions":[-1.96464E5,1E0,1.0518667E4,-5.973033E5,-9.08103E5,-1.3392633E5,1.05494336E5,1E0,-4.6086766E5,-3.1828176E4,1E0,-1.8550867E5,-8.3159E4,1.00229336E5,1.71354E5,1E0,1E0,1E0,-4.26833E5,-5.7935645E3,-1.54388E4,5.4880703E3,8.2539E4,-3.27175E5,1E0,8.7324664E4,1.0282E4,9.19275E3,1.08518664E5,-4.2888423E3,-7.658729E3,-8.353685E3,-1.2216963E4,-3.8935117E3,-6.004986E3,-1.0177712E3,2.8426177E3,5.6380013E1,2.3370017E3,-9.3159966E1,7.5590103E3,5.2536025E3,2.32516E3,6.406238E3,8.342196E3,2.2600967E3,6.1034336E3,3.2087334E3,7.9700096E1],"split_indices":[5,3,5,5,5,5,5,2,5,0,0,5,4,5,4,1,1,1,4,0,0,0,4,4,1,5,4,0,5,0,0,0,0,0,0,0,0,0,0,0,0,0,0,0,0,0,0,0,0],"split_type":[0,0,0,0,0,0,0,0,0,0,0,0,0,0,0,0,0,0,0,0,0,0,0,0,0,0,0,0,0,0,0,0,0,0,0,0,0,0,0,0,0,0,0,0,0,0,0,0,0],"sum_hessian":[1.12E3,5.73E2,5.47E2,5.58E2,1.5E1,1.92E2,3.55E2,2.11E2,3.47E2,2E0,1.3E1,3E1,1.62E2,3.05E2,5E1,9.9E1,1.12E2,3.23E2,2.4E1,2E0,1.1E1,4E0,2.6E1,3.1E1,1.31E2,2.92E2,1.3E1,4.7E1,3E0,6.2E1,3.7E1,8.1E1,3.1E1,2.37E2,8.6E1,1.3E1,1.1E1,1.7E1,9E0,3E0,2.8E1,8.8E1,4.3E1,2.57E2,3.5E1,9E0,4E0,2E0,1E0],"tree_param":{"num_deleted":"0","num_feature":"6","num_nodes":"49","size_leaf_vector":"1"}},{"base_weights":[-5.6689246E2,-5.2917137E4,5.4268156E4,-4.9442215E4,-1.7101488E5,5.9639152E4,3.1309486E4,-6.965605E4,-3.698597E4,-2.97063E4,-1.3178922E5,6.0465168E4,-4.4761383E2,1.9910656E4,4.8895176E4,-5.063006E4,-8.587677E4,-4.0883156E4,1.4533461E3,-5.407327E4,-1.4023577E4,6.526702E4,4.8494332E4,-1.1413825E4,3.267483E3,1.594569E4,4.6663445E4,4.3518617E4,1.0249206E4,-3.8667656E3,-6.913009E3,-1.3021796E4,-7.8810244E3,-3.570074E3,-5.411388E3,-1.1903856E3,2.5820437E3,-1.7070032E3,-6.403988E3,6.402864E3,1.0954747E4,3.409689E2,4.9909766E3,1.1839075E3,-3.8613083E3,2.28024E3,4.2220395E2,-3.8344739E3,8.13903E3,3.1925283E3,6.694318E3],"categories":[],"categories_nodes":[],"categories_segments":[],"categories_sizes":[],"default_left":[0,0,0,0,0,0,0,0,0,0,0,0,0,0,0,0,0,0,0,0,0,0,0,0,0,0,0,0,0,0,0,0,0,0,0,0,0,0,0,0,0,0,0,0,0,0,0,0,0,0,0],"id":17,"left_children":[1,3,5,7,9,11,13,15,17,-1,19,21,23,25,27,29,31,33,35,37,-1,39,41,43,-1,45,47,49,-1,-1,-1,-1,-1,-1,-1,-1,-1,-1,-1,-1,-1,-1,-1,-1,-1,-1,-1,-1,-1,-1,-1],"loss_changes":[3.220846E12,2.2710308E11,6.570718E10,1.3817335E11,3.995943E10,2.2014198E10,2.0274831E10,6.1078503E10,5.219166E10,0E0,1.607041E9,2.1954691E10,2.9155387E9,6.2567936E9,7.3545236E9,1.945736E10,2.5144721E10,1.9735314E10,1.1048075E10,1.3227008E7,0E0,9.930277E9,8.0618455E9,4.2519127E9,0E0,4.646483E9,2.6737422E10,8.4539965E9,0E0,0E0,0E0,0E0,0E0,0E0,0E0,0E0,0E0,0E0,0E0,0E0,0E0,0E0,0E0,0E0,0E0,0E0,0E0,0E0,0E0,0E0,0E0],"parents":[2147483647,0,0,1,1,2,2,3,3,4,4,5,5,6,6,7,7,8,8,10,10,11,11,12,12,13,13,14,14,15,15,16,16,17,17,18,18,19,19,21,21,22,22,23,23,25,25,26,26,27,27],"right_children":[2,4,6,8,10,12,14,16,18,-1,20,22,24,26,28,30,32,34,36,38,-1,40,42,44,-1,46,48,50,-1,-1,-1,-1,-1,-1,-1,-1,-1,-1,-1,-1,-1,-1,-1,-1,-1,-1,-1,-1,-1,-1,-1],"split_conditions":[-1.96464E5,1E0,1E0,-5.973033E5,-9.08103E5,1E0,9.0202E4,1E0,-4.7299034E5,-2.97063E4,1E0,1E0,6.1256665E3,2.3480334E4,4.0806E4,1E0,-8.390043E5,1E0,-3.94464E5,1E0,-1.4023577E4,1.39015E5,-3.27175E5,1.0282E4,3.267483E3,-7.8752336E4,1E0,1.58365E5,1.0249206E4,-3.8667656E3,-6.913009E3,-1.3021796E4,-7.8810244E3,-3.570074E3,-5.411388E3,-1.1903856E3,2.5820437E3,-1.7070032E3,-6.403988E3,6.402864E3,1.0954747E4,3.409689E2,4.9909766E3,1.1839075E3,-3.8613083E3,2.28024E3,4.2220395E2,-3.8344739E3,8.13903E3,3.1925283E3,6.694318E3],"split_indices":[5,3,2,5,5,3,4,2,5,0,0,1,5,5,5,1,5,1,4,1,0,5,4,4,0,5,0,4,0,0,0,0,0,0,0,0,0,0,0,0,0,0,0,0,0,0,0,0,0,0,0],"split_type":[0,0,0,0,0,0,0,0,0,0,0,0,0,0,0,0,0,0,0,0,0,0,0,0,0,0,0,0,0,0,0,0,0,0,0,0,0,0,0,0,0,0,0,0,0,0,0,0,0,0,0],"sum_hessian":[1.12E3,5.73E2,5.47E2,5.58E2,1.5E1,4.42E2,1.05E2,2.11E2,3.47E2,2E0,1.3E1,4.36E2,6E0,6.5E1,4E1,9.9E1,1.12E2,3.15E2,3.2E1,2E0,1.1E1,3.08E2,1.28E2,5E0,1E0,5.8E1,7E0,3.8E1,2E0,6.2E1,3.7E1,1.3E1,9.9E1,2.29E2,8.6E1,2.1E1,1.1E1,1E0,1E0,3.02E2,6E0,4E0,1.24E2,3E0,2E0,3.6E1,2.2E1,2E0,5E0,2.7E1,1.1E1],"tree_param":{"num_deleted":"0","num_feature":"6","num_nodes":"51","size_leaf_vector":"1"}},{"base_weights":[-5.465074E2,-4.7784168E4,4.8933355E4,-1.8754142E5,-4.5226016E4,3.8527645E4,5.890103E4,-6.936255E4,-2.5476693E4,-6.3248105E4,-3.4057992E4,6.3766773E4,3.463778E4,5.5470605E4,7.308214E4,-1.47115625E4,-1.3145375E4,-5.9894734E4,-1.1999292E4,-4.187967E4,-2.1534502E4,4.3571477E4,8.778908E4,1.0778569E4,3.7782656E4,5.6942773E4,2.8900102E4,7.614664E3,1.8037562E4,2.1789001E3,-5.8974253E3,-4.567486E3,-7.2744673E3,-4.6303833E3,-2.1366367E3,-1.9309481E3,-9.068911E3,1.1202716E3,6.6914487E3,1.3038139E4,5.3454785E3,4.760078E3,2.982984E2,4.369767E3,2.4304717E3,3.8409832E3,5.940011E3,1.4945494E3,5.1029297E3,2.5679604E3,-2.4442802E2],"categories":[],"categories_nodes":[],"categories_segments":[],"categories_sizes":[],"default_left":[0,0,0,0,0,0,0,0,0,0,0,0,0,0,0,0,0,0,0,0,0,0,0,0,0,0,0,0,0,0,0,0,0,0,0,0,0,0,0,0,0,0,0,0,0,0,0,0,0,0,0],"id":18,"left_children":[1,3,5,7,9,11,13,15,-1,17,19,21,23,25,27,-1,29,31,-1,33,35,37,39,41,43,45,47,-1,49,-1,-1,-1,-1,-1,-1,-1,-1,-1,-1,-1,-1,-1,-1,-1,-1,-1,-1,-1,-1,-1,-1],"loss_changes":[2.622466E12,1.9673514E11,5.456973E10,6.177502E10,1.1156416E11,2.4397152E10,9.470083E9,1.9921404E10,0E0,3.3724563E10,3.3480278E10,1.315473E10,1.7375887E10,7.2728576E9,7.2293745E9,0E0,7.6890025E9,3.4135998E10,0E0,1.8522767E10,1.9329102E10,1.5117652E10,1.4966145E10,8.1824783E9,1.5599862E10,7.5099013E9,3.5606016E9,0E0,6.8886054E8,0E0,0E0,0E0,0E0,0E0,0E0,0E0,0E0,0E0,0E0,0E0,0E0,0E0,0E0,0E0,0E0,0E0,0E0,0E0,0E0,0E0,0E0],"parents":[2147483647,0,0,1,1,2,2,3,3,4,4,5,5,6,6,7,7,9,9,10,10,11,11,12,12,13,13,14,14,16,16,17,17,19,19,20,20,21,21,22,22,23,23,24,24,25,25,26,26,28,28],"right_children":[2,4,6,8,10,12,14,16,-1,18,20,22,24,26,28,-1,30,32,-1,34,36,38,40,42,44,46,48,-1,50,-1,-1,-1,-1,-1,-1,-1,-1,-1,-1,-1,-1,-1,-1,-1,-1,-1,-1,-1,-1,-1,-1],"split_conditions":[-1.96464E5,-8.868097E5,3.5095E4,1E0,-5.973033E5,-1.14948E5,1.05494336E5,2E0,-2.5476693E4,1E0,-5.2022966E5,-1.52098E5,-1.3392633E5,1.00229336E5,1.71354E5,-1.47115625E4,-5.12487E5,1E0,-1.1999292E4,-4.88605E5,1E0,-9.351E3,-1.33992E5,-1.8550867E5,1E0,-1.33992E5,1.0282E4,7.614664E3,1.08518664E5,2.1789001E3,-5.8974253E3,-4.567486E3,-7.2744673E3,-4.6303833E3,-2.1366367E3,-1.9309481E3,-9.068911E3,1.1202716E3,6.6914487E3,1.3038139E4,5.3454785E3,4.760078E3,2.982984E2,4.369767E3,2.4304717E3,3.8409832E3,5.940011E3,1.4945494E3,5.1029297E3,2.5679604E3,-2.4442802E2],"split_indices":[5,5,5,1,5,4,5,0,0,3,5,4,5,5,4,0,4,2,0,4,3,5,4,5,1,4,4,0,5,0,0,0,0,0,0,0,0,0,0,0,0,0,0,0,0,0,0,0,0,0,0],"split_type":[0,0,0,0,0,0,0,0,0,0,0,0,0,0,0,0,0,0,0,0,0,0,0,0,0,0,0,0,0,0,0,0,0,0,0,0,0,0,0,0,0,0,0,0,0,0,0,0,0,0,0],"sum_hessian":[1.12E3,5.73E2,5.47E2,9E0,5.64E2,2.7E2,2.77E2,4E0,5E0,2.14E2,3.5E2,3.4E1,2.36E2,2.27E2,5E1,1E0,3E0,2.04E2,1E1,2.14E2,1.36E2,2E1,1.4E1,2.8E1,2.08E2,2.14E2,1.3E1,4.7E1,3E0,2E0,1E0,9.9E1,1.05E2,1.75E2,3.9E1,1.33E2,3E0,9E0,1.1E1,5E0,9E0,4E0,2.4E1,1.43E2,6.5E1,2.7E1,1.87E2,9E0,4E0,2E0,1E0],"tree_param":{"num_deleted":"0","num_feature":"6","num_nodes":"51","size_leaf_vector":"1"}},{"base_weights":[-5.1072296E2,-4.3154742E4,4.4157484E4,-4.014983E4,-1.454417E5,4.8621473E4,2.5084803E4,-4.906664E4,-2.062842E4,-2.6386275E4,-1.0967707E5,4.9354145E4,-4.0640737E3,1.4763354E4,4.1087996E4,-3.907812E4,-7.116732E4,-2.5262967E4,8.560138E3,-6.7455086E4,-1.3291167E4,5.3316465E4,3.948041E4,-1.4360153E4,2.8856204E3,1.6058923E4,-3.4724321E3,3.614128E4,9.169925E3,-3.049236E3,-5.1356436E3,-9.103706E3,-6.0967104E3,-6.5477915E3,-2.3743923E3,-6.334268E2,2.52236E3,-8.842992E3,-2.9616477E3,5.220915E3,9.363084E3,3.817578E0,4.0742253E3,7.6738165E2,-3.8952063E3,1.1519283E3,5.202747E3,2.5719438E3,5.7447153E3],"categories":[],"categories_nodes":[],"categories_segments":[],"categories_sizes":[],"default_left":[0,0,0,0,0,0,0,0,0,0,0,0,0,0,0,0,0,0,0,0,0,0,0,0,0,0,0,0,0,0,0,0,0,0,0,0,0,0,0,0,0,0,0,0,0,0,0,0,0],"id":19,"left_children":[1,3,5,7,9,11,13,15,17,-1,19,21,23,25,27,29,31,33,35,37,-1,39,41,43,-1,45,-1,47,-1,-1,-1,-1,-1,-1,-1,-1,-1,-1,-1,-1,-1,-1,-1,-1,-1,-1,-1,-1,-1],"loss_changes":[2.1372222E12,1.7058706E11,4.5437223E10,9.6292176E10,3.8824903E10,1.7300849E10,1.690207E10,8.176743E10,2.416006E10,0E0,4.7685796E9,1.4991753E10,2.7870282E9,4.789206E9,6.9506007E9,2.6475332E10,1.8365415E10,7.7918126E9,6.3645824E9,2.9366272E9,0E0,8.905622E9,6.418776E9,3.5500552E9,0E0,1.0014155E10,0E0,7.182303E9,0E0,0E0,0E0,0E0,0E0,0E0,0E0,0E0,0E0,0E0,0E0,0E0,0E0,0E0,0E0,0E0,0E0,0E0,0E0,0E0,0E0],"parents":[2147483647,0,0,1,1,2,2,3,3,4,4,5,5,6,6,7,7,8,8,10,10,11,11,12,12,13,13,14,14,15,15,16,16,17,17,18,18,19,19,21,21,22,22,23,23,25,25,27,27],"right_children":[2,4,6,8,10,12,14,16,18,-1,20,22,24,26,28,30,32,34,36,38,-1,40,42,44,-1,46,-1,48,-1,-1,-1,-1,-1,-1,-1,-1,-1,-1,-1,-1,-1,-1,-1,-1,-1,-1,-1,-1,-1],"split_conditions":[-1.96464E5,1E0,1E0,-5.32103E5,-9.08103E5,1E0,9.0202E4,1E0,-4.6086766E5,-2.6386275E4,1E0,1E0,6.1256665E3,4.8740332E4,4.0806E4,1E0,-7.986107E5,-9.4213E5,-4.26833E5,-5.91414E5,-1.3291167E4,1.39015E5,-3.27175E5,1.0282E4,2.8856204E3,2.3480334E4,-3.4724321E3,1.58365E5,9.169925E3,-3.049236E3,-5.1356436E3,-9.103706E3,-6.0967104E3,-6.5477915E3,-2.3743923E3,-6.334268E2,2.52236E3,-8.842992E3,-2.9616477E3,5.220915E3,9.363084E3,3.817578E0,4.0742253E3,7.6738165E2,-3.8952063E3,1.1519283E3,5.202747E3,2.5719438E3,5.7447153E3],"split_indices":[5,3,2,5,5,3,4,2,5,0,1,1,5,5,5,1,5,4,4,4,0,5,4,4,0,5,0,4,0,0,0,0,0,0,0,0,0,0,0,0,0,0,0,0,0,0,0,0,0],"split_type":[0,0,0,0,0,0,0,0,0,0,0,0,0,0,0,0,0,0,0,0,0,0,0,0,0,0,0,0,0,0,0,0,0,0,0,0,0,0,0,0,0,0,0,0,0,0,0,0,0],"sum_hessian":[1.12E3,5.73E2,5.47E2,5.58E2,1.5E1,4.42E2,1.05E2,3.82E2,1.76E2,2E0,1.3E1,4.36E2,6E0,6.5E1,4E1,2.65E2,1.17E2,1.52E2,2.4E1,6E0,7E0,3.08E2,1.28E2,5E0,1E0,6.4E1,1E0,3.8E1,2E0,1.58E2,1.07E2,3.7E1,8E1,4E0,1.48E2,1.3E1,1.1E1,3E0,3E0,3.02E2,6E0,4E0,1.24E2,3E0,2E0,5.8E1,6E0,2.7E1,1.1E1],"tree_param":{"num_deleted":"0","num_feature":"6","num_nodes":"49","size_leaf_vector":"1"}},{"base_weights":[-4.9810974E2,-3.8981953E4,3.981252E4,-1.6152812E5,-3.6744E4,3.1164785E4,4.8099293E4,-5.537285E4,-2.2306951E4,-5.1414E4,-2.7653418E4,5.4187668E4,2.7633285E4,4.6957227E4,8.560534E3,-1.2656675E4,-5.9326875E3,-4.8551164E4,-1.0009286E5,-3.1725727E4,-1.11467705E4,3.6153656E4,7.582277E4,2.9017973E4,-1.0669724E4,6.7832603E3,4.7531527E4,2.6405542E3,-5.1473687E3,-3.7362312E3,-5.864865E3,-1.0867175E4,-4.099192E3,-3.0561519E3,-7.9991636E3,-7.1384564E2,-7.650142E3,7.4045E2,5.709848E3,1.1555076E4,4.4403706E3,3.486854E3,1.6539901E3,-1.8856787E3,2.741339E3,1.8975511E3,-2.099287E3,4.4004614E3,5.258755E3],"categories":[],"categories_nodes":[],"categories_segments":[],"categories_sizes":[],"default_left":[0,0,0,0,0,0,0,0,0,0,0,0,0,0,0,0,0,0,0,0,0,0,0,0,0,0,0,0,0,0,0,0,0,0,0,0,0,0,0,0,0,0,0,0,0,0,0,0,0],"id":20,"left_children":[1,3,5,7,9,11,13,15,-1,17,19,21,23,25,-1,-1,27,29,31,33,35,37,39,41,43,45,47,-1,-1,-1,-1,-1,-1,-1,-1,-1,-1,-1,-1,-1,-1,-1,-1,-1,-1,-1,-1,-1,-1],"loss_changes":[1.740568E12,1.5148581E11,3.7771674E10,5.2977467E10,7.392592E10,2.053636E10,7.8881096E9,1.684831E10,0E0,2.5102778E10,2.3240638E10,1.0914603E10,1.2879577E10,5.9530936E9,0E0,0E0,7.250052E9,2.0969488E10,1.1225498E9,1.3345194E10,1.8053198E10,1.2222284E10,1.3592363E10,1.6141124E10,3.3230282E9,2.0916183E9,2.46494E9,0E0,0E0,0E0,0E0,0E0,0E0,0E0,0E0,0E0,0E0,0E0,0E0,0E0,0E0,0E0,0E0,0E0,0E0,0E0,0E0,0E0,0E0],"parents":[2147483647,0,0,1,1,2,2,3,3,4,4,5,5,6,6,7,7,9,9,10,10,11,11,12,12,13,13,16,16,17,17,18,18,19,19,20,20,21,21,22,22,23,23,24,24,25,25,26,26],"right_children":[2,4,6,8,10,12,14,16,-1,18,20,22,24,26,-1,-1,28,30,32,34,36,38,40,42,44,46,48,-1,-1,-1,-1,-1,-1,-1,-1,-1,-1,-1,-1,-1,-1,-1,-1,-1,-1,-1,-1,-1,-1],"split_conditions":[-1.96464E5,-8.868097E5,3.5095E4,1E0,-5.973033E5,-1.14948E5,1.39015E5,2E0,-2.2306951E4,1E0,-4.9448234E5,-1.52098E5,1E0,-3.49322E5,8.560534E3,-1.2656675E4,-5.12487E5,1E0,-6.50308E5,1E0,1E0,-9.351E3,-1.33992E5,1E0,6.1256665E3,-3.94464E5,8.3162664E4,2.6405542E3,-5.1473687E3,-3.7362312E3,-5.864865E3,-1.0867175E4,-4.099192E3,-3.0561519E3,-7.9991636E3,-7.1384564E2,-7.650142E3,7.4045E2,5.709848E3,1.1555076E4,4.4403706E3,3.486854E3,1.6539901E3,-1.8856787E3,2.741339E3,1.8975511E3,-2.099287E3,4.4004614E3,5.258755E3],"split_indices":[5,5,5,1,5,4,5,0,0,3,5,4,3,4,0,0,4,2,5,2,3,5,4,1,5,4,5,0,0,0,0,0,0,0,0,0,0,0,0,0,0,0,0,0,0,0,0,0,0],"split_type":[0,0,0,0,0,0,0,0,0,0,0,0,0,0,0,0,0,0,0,0,0,0,0,0,0,0,0,0,0,0,0,0,0,0,0,0,0,0,0,0,0,0,0,0,0,0,0,0,0],"sum_hessian":[1.12E3,5.73E2,5.47E2,9E0,5.64E2,2.7E2,2.77E2,4E0,5E0,2.14E2,3.5E2,3.4E1,2.36E2,2.71E2,6E0,1E0,3E0,2.04E2,1E1,2.8E2,7E1,2E1,1.4E1,2.28E2,8E0,4E0,2.67E2,2E0,1E0,9.9E1,1.05E2,8E0,2E0,2.75E2,5E0,6.7E1,3E0,9E0,1.1E1,5E0,9E0,1.54E2,7.4E1,7E0,1E0,3E0,1E0,1.63E2,1.04E2],"tree_param":{"num_deleted":"0","num_feature":"6","num_nodes":"49","size_leaf_vector":"1"}},{"base_weights":[-4.7951852E2,-3.522567E4,3.5916047E4,-1.4912236E5,-3.3147453E4,3.9701844E4,1.9755447E4,-5.2868273E4,-2.0448037E4,-4.02411E4,-1.7751365E4,3.763324E4,5.4863816E4,1.0576038E4,3.405022E4,-1.2023844E4,-5.966125E3,-3.4391906E4,-5.4422516E4,-1.9921746E4,1.1662103E4,3.8266203E4,-2.7369666E3,5.754656E4,8.954938E3,1.1821464E4,-3.5188337E3,2.946052E4,8.236623E3,2.4645166E3,-4.89E3,-3.1903308E3,-9.144417E3,-4.8917534E3,-8.639323E3,-1.8383065E3,-6.6406133E3,4.0650066E3,-2.8932202E3,4.121563E3,3.1903484E3,-1.1874034E3,2.604272E3,5.2722876E3,7.8267734E3,1.6981185E3,-7.5619006E2,7.917789E2,4.3035093E3,2.0040775E3,4.898488E3],"categories":[],"categories_nodes":[],"categories_segments":[],"categories_sizes":[],"default_left":[0,0,0,0,0,0,0,0,0,0,0,0,0,0,0,0,0,0,0,0,0,0,0,0,0,0,0,0,0,0,0,0,0,0,0,0,0,0,0,0,0,0,0,0,0,0,0,0,0,0,0],"id":21,"left_children":[1,3,5,7,9,11,13,15,-1,17,19,21,23,25,27,-1,29,31,33,35,37,39,41,43,45,47,-1,49,-1,-1,-1,-1,-1,-1,-1,-1,-1,-1,-1,-1,-1,-1,-1,-1,-1,-1,-1,-1,-1,-1,-1],"loss_changes":[1.4188883E12,1.30923954E11,3.2742769E10,4.2473816E10,6.0991734E10,1.1829641E10,1.3548945E10,1.5081671E10,0E0,3.0147019E10,1.1723235E10,1.0147004E10,5.765939E9,4.1777234E9,6.665437E9,0E0,6.462194E9,3.626913E10,1.5309668E10,1.0795389E10,1.6473796E10,5.947654E9,2.1499653E9,6.712033E8,6.586829E8,7.5793684E9,0E0,6.1909647E9,0E0,0E0,0E0,0E0,0E0,0E0,0E0,0E0,0E0,0E0,0E0,0E0,0E0,0E0,0E0,0E0,0E0,0E0,0E0,0E0,0E0,0E0,0E0],"parents":[2147483647,0,0,1,1,2,2,3,3,4,4,5,5,6,6,7,7,9,9,10,10,11,11,12,12,13,13,14,14,16,16,17,17,18,18,19,19,20,20,21,21,22,22,23,23,24,24,25,25,27,27],"right_children":[2,4,6,8,10,12,14,16,-1,18,20,22,24,26,28,-1,30,32,34,36,38,40,42,44,46,48,-1,50,-1,-1,-1,-1,-1,-1,-1,-1,-1,-1,-1,-1,-1,-1,-1,-1,-1,-1,-1,-1,-1,-1,-1],"split_conditions":[-1.96464E5,-8.868097E5,1E0,1E0,-5.32103E5,1.05494336E5,9.0202E4,2E0,-2.0448037E4,1E0,-4.7168E4,1E0,1.71354E5,4.8740332E4,4.0806E4,-1.2023844E4,-5.12487E5,1E0,-6.374697E5,-3.79747E5,-2.1401833E5,1E0,6.1256665E3,1.39015E5,1.08518664E5,2.3480334E4,-3.5188337E3,1.58365E5,8.236623E3,2.4645166E3,-4.89E3,-3.1903308E3,-9.144417E3,-4.8917534E3,-8.639323E3,-1.8383065E3,-6.6406133E3,4.0650066E3,-2.8932202E3,4.121563E3,3.1903484E3,-1.1874034E3,2.604272E3,5.2722876E3,7.8267734E3,1.6981185E3,-7.5619006E2,7.917789E2,4.3035093E3,2.0040775E3,4.898488E3],"split_indices":[5,5,2,1,5,5,4,0,0,2,4,3,4,5,5,0,4,3,5,4,5,1,5,5,5,5,0,4,0,0,0,0,0,0,0,0,0,0,0,0,0,0,0,0,0,0,0,0,0,0,0],"split_type":[0,0,0,0,0,0,0,0,0,0,0,0,0,0,0,0,0,0,0,0,0,0,0,0,0,0,0,0,0,0,0,0,0,0,0,0,0,0,0,0,0,0,0,0,0,0,0,0,0,0,0],"sum_hessian":[1.12E3,5.73E2,5.47E2,9E0,5.64E2,4.42E2,1.05E2,4E0,5E0,3.85E2,1.79E2,3.92E2,5E1,6.5E1,4E1,1E0,3E0,2.75E2,1.1E2,1.67E2,1.2E1,3.86E2,6E0,4.7E1,3E0,6.4E1,1E0,3.8E1,2E0,2E0,1E0,2.65E2,1E1,9.6E1,1.4E1,1.63E2,4E0,7E0,5E0,2.6E2,1.26E2,5E0,1E0,4.1E1,6E0,2E0,1E0,5.8E1,6E0,2.7E1,1.1E1],"tree_param":{"num_deleted":"0","num_feature":"6","num_nodes":"51","size_leaf_vector":"1"}},{"base_weights":[-4.570657E2,-3.1821691E4,3.2396496E4,-2.9342115E4,-1.1646303E5,3.578306E4,1.7937596E4,-3.602298E4,-1.4720006E4,-2.2379342E4,-8.5144875E4,3.3892125E4,4.9652746E4,9.542317E3,3.1014445E4,-2.872497E4,-5.2169145E4,-1.849663E4,8.981746E3,-4.952349E4,-1.0567048E4,3.4458477E4,-2.2608572E3,5.20648E4,8.294928E3,1.4735713E4,-1.5142782E3,2.731997E4,8.939671E3,-2.0989893E3,-3.9846755E3,-6.856937E3,-4.320487E3,-5.6792573E3,-1.7087395E3,1.309517E3,-4.487021E3,-6.848095E3,-1.8185149E3,-1.8135869E2,3.4842036E3,-1.0884529E3,2.4740586E3,2.2472156E3,5.353826E3,1.5849106E3,-7.183805E2,2.6763147E3,-3.1314664E2,-3.9400203E3,4.2443243E2,1.9271161E3,4.4494604E3],"categories":[],"categories_nodes":[],"categories_segments":[],"categories_sizes":[],"default_left":[0,0,0,0,0,0,0,0,0,0,0,0,0,0,0,0,0,0,0,0,0,0,0,0,0,0,0,0,0,0,0,0,0,0,0,0,0,0,0,0,0,0,0,0,0,0,0,0,0,0,0,0,0],"id":22,"left_children":[1,3,5,7,9,11,13,15,17,-1,19,21,23,25,27,29,31,33,35,37,-1,39,41,43,45,47,49,51,-1,-1,-1,-1,-1,-1,-1,-1,-1,-1,-1,-1,-1,-1,-1,-1,-1,-1,-1,-1,-1,-1,-1,-1,-1],"loss_changes":[1.1561537E12,1.1705077E11,2.6191528E10,5.407752E10,3.472738E10,9.935585E9,1.134113E10,4.363223E10,1.6009867E10,0E0,5.0029445E9,8.1246945E9,4.6557594E9,3.812118E9,6.4010486E9,2.2047048E10,1.4385381E10,7.2866816E9,6.125481E9,2.9133322E9,0E0,5.447287E9,1.8992507E9,8.898478E8,5.815734E8,9.754141E9,4.966967E9,4.671951E9,0E0,0E0,0E0,0E0,0E0,0E0,0E0,0E0,0E0,0E0,0E0,0E0,0E0,0E0,0E0,0E0,0E0,0E0,0E0,0E0,0E0,0E0,0E0,0E0,0E0],"parents":[2147483647,0,0,1,1,2,2,3,3,4,4,5,5,6,6,7,7,8,8,10,10,11,11,12,12,13,13,14,14,15,15,16,16,17,17,18,18,19,19,21,21,22,22,23,23,24,24,25,25,26,26,27,27],"right_children":[2,4,6,8,10,12,14,16,18,-1,20,22,24,26,28,30,32,34,36,38,-1,40,42,44,46,48,50,52,-1,-1,-1,-1,-1,-1,-1,-1,-1,-1,-1,-1,-1,-1,-1,-1,-1,-1,-1,-1,-1,-1,-1,-1,-1],"split_conditions":[-1.96464E5,1E0,1E0,-5.32103E5,-9.08103E5,1.05494336E5,9.0202E4,1E0,-4.6086766E5,-2.2379342E4,1E0,1E0,1.71354E5,5.3664E4,6.4090668E4,1E0,-7.95481E5,-9.4213E5,1.71354E5,-5.91414E5,-1.0567048E4,-1.3392633E5,6.1256665E3,-1.33992E5,1.08518664E5,1E0,5.4833E4,1.58365E5,8.939671E3,-2.0989893E3,-3.9846755E3,-6.856937E3,-4.320487E3,-5.6792573E3,-1.7087395E3,1.309517E3,-4.487021E3,-6.848095E3,-1.8185149E3,-1.8135869E2,3.4842036E3,-1.0884529E3,2.4740586E3,2.2472156E3,5.353826E3,1.5849106E3,-7.183805E2,2.6763147E3,-3.1314664E2,-3.9400203E3,4.2443243E2,1.9271161E3,4.4494604E3],"split_indices":[5,3,2,5,5,5,4,2,5,0,1,3,4,4,5,1,5,4,4,4,0,5,5,4,5,1,4,4,0,0,0,0,0,0,0,0,0,0,0,0,0,0,0,0,0,0,0,0,0,0,0,0,0],"split_type":[0,0,0,0,0,0,0,0,0,0,0,0,0,0,0,0,0,0,0,0,0,0,0,0,0,0,0,0,0,0,0,0,0,0,0,0,0,0,0,0,0,0,0,0,0,0,0,0,0,0,0,0,0],"sum_hessian":[1.12E3,5.73E2,5.47E2,5.58E2,1.5E1,4.42E2,1.05E2,3.82E2,1.76E2,2E0,1.3E1,3.92E2,5E1,6.5E1,4E1,2.65E2,1.17E2,1.52E2,2.4E1,6E0,7E0,3.86E2,6E0,4.7E1,3E0,4.4E1,2.1E1,3.9E1,1E0,1.58E2,1.07E2,3.9E1,7.8E1,4E0,1.48E2,2.3E1,1E0,3E0,3E0,4E0,3.82E2,5E0,1E0,3E0,4.4E1,2E0,1E0,2.6E1,1.8E1,2E0,1.9E1,2.8E1,1.1E1],"tree_param":{"num_deleted":"0","num_feature":"6","num_nodes":"53","size_leaf_vector":"1"}},{"base_weights":[-4.4892792E2,-2.8760488E4,2.9206701E4,-2.6457674E4,-1.0741755E5,2.2596953E4,3.5544953E4,-3.246574E4,-1.3307689E4,-2.0887383E4,-7.800423E4,4.291292E4,1.950136E4,2.092491E4,3.7295145E4,-2.5875334E4,-4.7046945E4,-1.5517188E4,2.1446312E4,-4.580922E4,-9.642434E3,2.6616732E4,6.286673E4,1.8850538E3,2.1852418E4,4.9193447E3,4.393925E4,3.6278465E4,6.697008E3,-1.8904094E3,-3.5898962E3,-3.99066E3,-6.4989556E3,-5.2249175E3,-1.4295243E3,4.3672256E3,-1.3959269E3,-6.334486E3,-1.6821273E3,-3.9729022E2,4.2195327E3,9.999812E3,3.4301223E3,3.5653015E3,-4.943941E2,2.6273718E3,1.1874852E3,1.7486361E3,-3.6278977E3,8.24385E3,2.9444978E3,3.9638606E3,2.831284E3],"categories":[],"categories_nodes":[],"categories_segments":[],"categories_sizes":[],"default_left":[0,0,0,0,0,0,0,0,0,0,0,0,0,0,0,0,0,0,0,0,0,0,0,0,0,0,0,0,0,0,0,0,0,0,0,0,0,0,0,0,0,0,0,0,0,0,0,0,0,0,0,0,0],"id":23,"left_children":[1,3,5,7,9,11,13,15,17,-1,19,21,23,25,27,29,31,33,35,37,-1,39,41,43,45,47,49,51,-1,-1,-1,-1,-1,-1,-1,-1,-1,-1,-1,-1,-1,-1,-1,-1,-1,-1,-1,-1,-1,-1,-1,-1,-1],"loss_changes":[9.4202836E11,1.0112811E11,2.2154838E10,4.373227E10,3.145361E10,1.6206332E10,6.3330386E9,3.5587424E10,1.3924428E10,0E0,3.8853755E9,9.707684E9,9.774629E9,1.1571289E10,5.022384E9,1.7908662E10,1.2524241E10,6.748791E9,9.26578E9,2.492714E9,0E0,1.0175052E10,1.248009E10,6.863703E9,8.907792E9,1.0989188E10,4.826839E9,5.328208E9,0E0,0E0,0E0,0E0,0E0,0E0,0E0,0E0,0E0,0E0,0E0,0E0,0E0,0E0,0E0,0E0,0E0,0E0,0E0,0E0,0E0,0E0,0E0,0E0,0E0],"parents":[2147483647,0,0,1,1,2,2,3,3,4,4,5,5,6,6,7,7,8,8,10,10,11,11,12,12,13,13,14,14,15,15,16,16,17,17,18,18,19,19,21,21,22,22,23,23,24,24,25,25,26,26,27,27],"right_children":[2,4,6,8,10,12,14,16,18,-1,20,22,24,26,28,30,32,34,36,38,-1,40,42,44,46,48,50,52,-1,-1,-1,-1,-1,-1,-1,-1,-1,-1,-1,-1,-1,-1,-1,-1,-1,-1,-1,-1,-1,-1,-1,-1,-1],"split_conditions":[-1.96464E5,1E0,3.5095E4,-5.32103E5,-9.08103E5,-1.14948E5,-1.33992E5,1E0,1E0,-2.0887383E4,1E0,-1.52098E5,-1.3392633E5,8.0923336E4,1.39015E5,1E0,1E0,-9.4213E5,-2.1401833E5,-5.91414E5,-9.642434E3,-2.4419666E4,-1.33992E5,-1.8550867E5,1E0,6.1937332E4,8.4467664E4,8.0649E4,6.697008E3,-1.8904094E3,-3.5898962E3,-3.99066E3,-6.4989556E3,-5.2249175E3,-1.4295243E3,4.3672256E3,-1.3959269E3,-6.334486E3,-1.6821273E3,-3.9729022E2,4.2195327E3,9.999812E3,3.4301223E3,3.5653015E3,-4.943941E2,2.6273718E3,1.1874852E3,1.7486361E3,-3.6278977E3,8.24385E3,2.9444978E3,3.9638606E3,2.831284E3],"split_indices":[5,3,5,5,5,4,4,2,2,0,1,4,5,5,5,1,1,4,5,4,0,5,4,5,1,5,5,4,0,0,0,0,0,0,0,0,0,0,0,0,0,0,0,0,0,0,0,0,0,0,0,0,0],"split_type":[0,0,0,0,0,0,0,0,0,0,0,0,0,0,0,0,0,0,0,0,0,0,0,0,0,0,0,0,0,0,0,0,0,0,0,0,0,0,0,0,0,0,0,0,0,0,0,0,0,0,0,0,0],"sum_hessian":[1.12E3,5.73E2,5.47E2,5.58E2,1.5E1,2.7E2,2.77E2,3.82E2,1.76E2,2E0,1.3E1,3.4E1,2.36E2,3.1E1,2.46E2,2.65E2,1.17E2,1.66E2,1E1,6E0,7E0,2E1,1.4E1,2.8E1,2.08E2,1.9E1,1.2E1,2.4E2,6E0,1.58E2,1.07E2,8.6E1,3.1E1,4E0,1.62E2,6E0,4E0,3E0,3E0,7E0,1.3E1,5E0,9E0,4E0,2.4E1,1.43E2,6.5E1,1.5E1,4E0,2E0,1E1,1.66E2,7.4E1],"tree_param":{"num_deleted":"0","num_feature":"6","num_nodes":"53","size_leaf_vector":"1"}},{"base_weights":[-4.1408023E2,-2.5985832E4,2.6371686E4,-1.2044986E5,-2.426791E4,2.230042E4,3.4779254E4,-3.5309375E4,-1.713253E4,-3.5130598E4,-1.875779E4,2.6294773E3,2.4018252E4,3.3493098E4,6.122978E3,-9.2593125E3,2.1598438E3,-3.2809145E4,-6.971326E4,-1.4586235E4,-2.9567863E4,3.2800774E3,-3.0551882E3,3.197263E4,2.126302E4,4.4568316E4,3.0315148E4,3.0233916E3,-4.1031187E3,-2.3646177E3,-3.8753892E3,-8.350281E3,-3.6465227E3,-1.5960128E3,3.309071E3,-3.9284673E3,-2.2351887E3,5.8597864E2,-1.4687222E3,-1.1707583E2,3.5386965E3,-2.3944607E3,2.2439077E3,2.9236077E3,6.657355E3,-2.4603882E3,3.2165754E3],"categories":[],"categories_nodes":[],"categories_segments":[],"categories_sizes":[],"default_left":[0,0,0,0,0,0,0,0,0,0,0,0,0,0,0,0,0,0,0,0,0,0,0,0,0,0,0,0,0,0,0,0,0,0,0,0,0,0,0,0,0,0,0,0,0,0,0],"id":24,"left_children":[1,3,5,7,9,11,13,15,-1,17,19,21,23,25,-1,-1,27,29,31,33,35,-1,37,39,41,43,45,-1,-1,-1,-1,-1,-1,-1,-1,-1,-1,-1,-1,-1,-1,-1,-1,-1,-1,-1,-1],"loss_changes":[7.685243E11,9.022672E10,1.7982128E10,3.7266194E10,3.3158955E10,1.2507234E10,3.9706788E9,1.0931873E10,0E0,1.2886065E10,1.6569467E10,5.417138E9,6.815498E9,4.667523E9,0E0,0E0,6.090726E9,8.834023E9,1.9982828E9,1.847595E10,6.414E9,0E0,2.8859448E9,9.773408E9,1.4201151E10,1.0199663E10,1.4613561E10,0E0,0E0,0E0,0E0,0E0,0E0,0E0,0E0,0E0,0E0,0E0,0E0,0E0,0E0,0E0,0E0,0E0,0E0,0E0,0E0],"parents":[2147483647,0,0,1,1,2,2,3,3,4,4,5,5,6,6,7,7,9,9,10,10,11,11,12,12,13,13,16,16,17,17,18,18,19,19,20,20,22,22,23,23,24,24,25,25,26,26],"right_children":[2,4,6,8,10,12,14,16,-1,18,20,22,24,26,-1,-1,28,30,32,34,36,-1,38,40,42,44,46,-1,-1,-1,-1,-1,-1,-1,-1,-1,-1,-1,-1,-1,-1,-1,-1,-1,-1,-1,-1],"split_conditions":[-1.96464E5,-8.868097E5,6.4090668E4,1E0,-6.128627E5,-1.3392633E5,1.39015E5,2E0,-1.713253E4,1E0,1E0,-1.8550867E5,-6.5041E4,7.3553664E4,6.122978E3,-9.2593125E3,-5.12487E5,-5.96141E5,-5.83461E5,-3.27175E5,-5.70163E5,3.2800774E3,1E0,-3.27175E5,-5.5689E4,7.0017E4,7.4625E4,3.0233916E3,-4.1031187E3,-2.3646177E3,-3.8753892E3,-8.350281E3,-3.6465227E3,-1.5960128E3,3.309071E3,-3.9284673E3,-2.2351887E3,5.8597864E2,-1.4687222E3,-1.1707583E2,3.5386965E3,-2.3944607E3,2.2439077E3,2.9236077E3,6.657355E3,-2.4603882E3,3.2165754E3],"split_indices":[5,5,5,1,5,5,5,0,0,3,1,5,4,5,0,0,4,4,4,4,5,0,0,4,4,5,5,0,0,0,0,0,0,0,0,0,0,0,0,0,0,0,0,0,0,0,0],"split_type":[0,0,0,0,0,0,0,0,0,0,0,0,0,0,0,0,0,0,0,0,0,0,0,0,0,0,0,0,0,0,0,0,0,0,0,0,0,0,0,0,0,0,0,0,0,0,0],"sum_hessian":[1.12E3,5.73E2,5.47E2,9E0,5.64E2,3.71E2,1.76E2,4E0,5E0,1.88E2,3.76E2,3E1,3.41E2,1.7E2,6E0,1E0,3E0,1.78E2,1E1,2.73E2,1.03E2,4E0,2.6E1,8.5E1,2.56E2,3.5E1,1.35E2,2E0,1E0,7.2E1,1.06E2,6E0,4E0,2.66E2,7E0,4.2E1,6.1E1,1.5E1,1.1E1,8E0,7.7E1,6E0,2.5E2,2.2E1,1.3E1,4E0,1.31E2],"tree_param":{"num_deleted":"0","num_feature":"6","num_nodes":"47","size_leaf_vector":"1"}},{"base_weights":[-3.976828E2,-2.3474645E4,2.3774896E4,-2.1433502E4,-9.331992E4,2.6387373E4,1.2632431E4,-2.5579314E4,-8.0935786E3,-1.8615168E4,-6.6761695E4,2.684894E4,-6.19719E3,1.0869251E4,6.9545195E3,-2.0489883E4,-3.868995E4,-1.039448E4,1.8579646E4,-3.82257E4,-8.338548E3,2.9387854E4,2.0559225E4,-1.4252692E4,2.1067915E3,7.434513E3,3.6582695E4,-2.3866355E3,-2.0868489E2,-3.4100017E3,-6.7934165E3,1.02052783E3,-1.2490079E3,2.9154268E3,-4.358328E3,-5.2331284E3,-1.4563695E3,5.5866753E3,2.849849E3,-8.847839E2,2.1571033E3,6.2422736E2,-3.6828418E3,1.2011165E3,-2.1062456E2,7.8779194E3,2.0265475E3],"categories":[],"categories_nodes":[],"categories_segments":[],"categories_sizes":[],"default_left":[0,0,0,0,0,0,0,0,0,0,0,0,0,0,0,0,0,0,0,0,0,0,0,0,0,0,0,0,0,0,0,0,0,0,0,0,0,0,0,0,0,0,0,0,0,0,0],"id":25,"left_children":[1,3,5,7,9,11,13,15,17,-1,19,21,23,25,-1,27,29,31,33,35,-1,37,39,41,-1,43,45,-1,-1,-1,-1,-1,-1,-1,-1,-1,-1,-1,-1,-1,-1,-1,-1,-1,-1,-1,-1],"loss_changes":[6.2588525E11,7.983166E10,1.5618605E10,3.0708367E10,2.7019362E10,6.8290806E9,9.880924E9,2.763237E10,8.4170404E9,0E0,3.4537964E9,6.3742607E9,1.8377134E9,8.913195E9,0E0,1.9150619E10,1.3522469E10,5.4804E9,8.5014825E9,1.574227E9,0E0,5.684609E9,4.0291656E9,3.0060252E9,0E0,4.0861169E9,6.665857E9,0E0,0E0,0E0,0E0,0E0,0E0,0E0,0E0,0E0,0E0,0E0,0E0,0E0,0E0,0E0,0E0,0E0,0E0,0E0,0E0],"parents":[2147483647,0,0,1,1,2,2,3,3,4,4,5,5,6,6,7,7,8,8,10,10,11,11,12,12,13,13,15,15,16,16,17,17,18,18,19,19,21,21,22,22,23,23,25,25,26,26],"right_children":[2,4,6,8,10,12,14,16,18,-1,20,22,24,26,-1,28,30,32,34,36,-1,38,40,42,-1,44,46,-1,-1,-1,-1,-1,-1,-1,-1,-1,-1,-1,-1,-1,-1,-1,-1,-1,-1,-1,-1],"split_conditions":[-1.96464E5,1E0,1E0,-5.2022966E5,-9.08103E5,1E0,5.1353E4,1E0,1E0,-1.8615168E4,1E0,1E0,6.1256665E3,1.58365E5,6.9545195E3,-4.88605E5,-6.374697E5,-8.30825E5,1.71354E5,-5.91414E5,-8.338548E3,-1.98281E5,-3.27175E5,1.0282E4,2.1067915E3,-5.9396668E4,1.63682E5,-2.3866355E3,-2.0868489E2,-3.4100017E3,-6.7934165E3,1.02052783E3,-1.2490079E3,2.9154268E3,-4.358328E3,-5.2331284E3,-1.4563695E3,5.5866753E3,2.849849E3,-8.847839E2,2.1571033E3,6.2422736E2,-3.6828418E3,1.2011165E3,-2.1062456E2,7.8779194E3,2.0265475E3],"split_indices":[5,3,2,5,5,3,5,2,2,0,1,1,5,4,0,4,5,4,4,4,0,4,4,4,0,5,4,0,0,0,0,0,0,0,0,0,0,0,0,0,0,0,0,0,0,0,0],"split_type":[0,0,0,0,0,0,0,0,0,0,0,0,0,0,0,0,0,0,0,0,0,0,0,0,0,0,0,0,0,0,0,0,0,0,0,0,0,0,0,0,0,0,0,0,0,0,0],"sum_hessian":[1.12E3,5.73E2,5.47E2,5.58E2,1.5E1,4.42E2,1.05E2,4.25E2,1.33E2,2E0,1.3E1,4.36E2,6E0,1.03E2,2E0,3.08E2,1.17E2,1.23E2,1E1,6E0,7E0,3.08E2,1.28E2,5E0,1E0,9.2E1,1.1E1,2.6E2,4.8E1,1.03E2,1.4E1,1.1E1,1.12E2,9E0,1E0,3E0,3E0,8E0,3E2,4E0,1.24E2,3E0,2E0,6.2E1,3E1,2E0,9E0],"tree_param":{"num_deleted":"0","num_feature":"6","num_nodes":"47","size_leaf_vector":"1"}},{"base_weights":[-3.771029E2,-2.1211008E4,2.144596E4,-1.0504202E5,-1.968973E4,1.6353124E4,2.6333416E4,-2.8077225E4,-1.5167236E4,-1.5313298E4,-3.0482258E4,3.4215305E4,1.3646248E4,1.3692767E4,2.7864457E4,-7.8655938E3,4.2314375E3,-1.7299004E4,6.115965E3,-2.7931688E4,-7.6089272E3,1.6833588E4,4.969617E4,8.746108E3,2.1007672E4,-3.0678027E2,3.4177242E4,4.1846246E4,2.59583E4,3.0491667E3,-3.7274626E3,-1.3539503E3,-2.9938025E3,-1.8632812E2,2.937415E3,-3.5447095E3,-1.5441509E3,-2.7272504E2,3.6697454E3,8.251265E3,1.519173E3,1.6809586E3,8.913388E1,6.938789E3,1.8650217E3,1.1098768E3,-3.674318E3,7.198603E3,2.075873E3,4.6105376E3,4.765122E2,1.5779722E3,2.9505078E3],"categories":[],"categories_nodes":[],"categories_segments":[],"categories_sizes":[],"default_left":[0,0,0,0,0,0,0,0,0,0,0,0,0,0,0,0,0,0,0,0,0,0,0,0,0,0,0,0,0,0,0,0,0,0,0,0,0,0,0,0,0,0,0,0,0,0,0,0,0,0,0,0,0],"id":26,"left_children":[1,3,5,7,9,11,13,15,-1,17,19,21,23,25,27,-1,29,31,33,35,-1,37,39,41,43,45,47,49,51,-1,-1,-1,-1,-1,-1,-1,-1,-1,-1,-1,-1,-1,-1,-1,-1,-1,-1,-1,-1,-1,-1,-1,-1],"loss_changes":[5.1012832E11,7.113405E10,1.3209649E10,3.1630402E10,2.6219725E10,1.2636127E10,4.9986765E9,8.503481E9,0E0,1.7296884E10,1.6719167E10,8.581378E9,8.3653304E9,9.187232E9,5.496668E9,0E0,5.4964004E9,1.7175732E10,6.5501297E9,1.4002307E10,0E0,7.0940534E9,1.9128144E10,9.10551E9,9.427001E9,8.719348E9,5.101052E9,4.2024346E9,7.4766746E9,0E0,0E0,0E0,0E0,0E0,0E0,0E0,0E0,0E0,0E0,0E0,0E0,0E0,0E0,0E0,0E0,0E0,0E0,0E0,0E0,0E0,0E0,0E0,0E0],"parents":[2147483647,0,0,1,1,2,2,3,3,4,4,5,5,6,6,7,7,9,9,10,10,11,11,12,12,13,13,14,14,16,16,17,17,18,18,19,19,21,21,22,22,23,23,24,24,25,25,26,26,27,27,28,28],"right_children":[2,4,6,8,10,12,14,16,-1,18,20,22,24,26,28,-1,30,32,34,36,-1,38,40,42,44,46,48,50,52,-1,-1,-1,-1,-1,-1,-1,-1,-1,-1,-1,-1,-1,-1,-1,-1,-1,-1,-1,-1,-1,-1,-1,-1],"split_conditions":[-1.96464E5,-8.868097E5,3.5095E4,1E0,1E0,-1.14948E5,-1.33992E5,2E0,-1.5167236E4,-4.75338E5,1E0,-7.3076665E3,6.8684E4,8.0923336E4,4.656E4,-7.8655938E3,-5.12487E5,1E0,-3.94464E5,-5.70163E5,-7.6089272E3,-1.79548E5,1.5874667E4,-6.911E3,7.0503E4,6.1937332E4,8.4467664E4,1E0,6.4090668E4,3.0491667E3,-3.7274626E3,-1.3539503E3,-2.9938025E3,-1.8632812E2,2.937415E3,-3.5447095E3,-1.5441509E3,-2.7272504E2,3.6697454E3,8.251265E3,1.519173E3,1.6809586E3,8.913388E1,6.938789E3,1.8650217E3,1.1098768E3,-3.674318E3,7.198603E3,2.075873E3,4.6105376E3,4.765122E2,1.5779722E3,2.9505078E3],"split_indices":[5,5,5,1,1,4,4,0,0,5,3,5,4,5,5,0,4,2,4,5,0,4,5,4,4,5,5,2,5,0,0,0,0,0,0,0,0,0,0,0,0,0,0,0,0,0,0,0,0,0,0,0,0],"split_type":[0,0,0,0,0,0,0,0,0,0,0,0,0,0,0,0,0,0,0,0,0,0,0,0,0,0,0,0,0,0,0,0,0,0,0,0,0,0,0,0,0,0,0,0,0,0,0,0,0,0,0,0,0],"sum_hessian":[1.12E3,5.73E2,5.47E2,9E0,5.64E2,2.7E2,2.77E2,4E0,5E0,4.03E2,1.61E2,3.4E1,2.36E2,3.1E1,2.46E2,1E0,3E0,3.69E2,3.4E1,1.54E2,7E0,1.7E1,1.7E1,1.43E2,9.3E1,1.9E1,1.2E1,2.7E1,2.19E2,2E0,1E0,2.86E2,8.3E1,2.6E1,8E0,9.5E1,5.9E1,9E0,8E0,8E0,9E0,7E1,7.3E1,3E0,9E1,1.5E1,4E0,2E0,1E1,2.4E1,3E0,5.8E1,1.61E2],"tree_param":{"num_deleted":"0","num_feature":"6","num_nodes":"53","size_leaf_vector":"1"}},{"base_weights":[-3.3755902E2,-1.8213617E4,2.050699E4,-9.690893E4,-1.6860396E4,1.8408768E4,2.7948686E4,-2.6978287E4,-1.3903299E4,-2.0905475E4,-6.368186E3,1.9370271E4,-3.446545E3,2.681398E4,7.695043E3,-7.4723125E3,3.6387031E3,-1.9979496E4,-5.4276324E4,-4.847441E3,-4.6366938E4,1.7984027E4,3.73415E4,6.423662E3,-1.1206532E4,2.4945557E4,5.100978E4,2.8458875E3,-3.5410906E3,-1.6588094E3,-2.9240427E3,-6.6687827E3,-2.6044949E3,1.6752682E3,-8.183294E2,-2.3554236E3,-6.132823E3,4.2579497E3,1.7240537E3,-3.805143E3,4.1704746E3,-2.803191E3,1.1226005E3,2.6210085E3,-5.587025E2,5.456998E3,1.482429E3],"categories":[],"categories_nodes":[],"categories_segments":[],"categories_sizes":[],"default_left":[0,0,0,0,0,0,0,0,0,0,0,0,0,0,0,0,0,0,0,0,0,0,0,0,0,0,0,0,0,0,0,0,0,0,0,0,0,0,0,0,0,0,0,0,0,0,0],"id":27,"left_children":[1,3,5,7,9,11,13,15,-1,17,19,21,23,25,-1,-1,27,29,31,33,35,37,39,-1,41,43,45,-1,-1,-1,-1,-1,-1,-1,-1,-1,-1,-1,-1,-1,-1,-1,-1,-1,-1,-1,-1],"loss_changes":[4.1807872E11,6.2687347E10,7.573717E9,2.570675E10,2.5119769E10,8.619442E9,4.164141E9,7.580911E9,0E0,1.2171969E10,9.933499E9,9.044345E9,1.0173838E10,3.74562E9,0E0,0E0,4.8846264E9,1.2674728E10,2.1174497E9,1.1809975E10,6.0330496E8,5.9221934E9,1.0468786E10,0E0,6.731096E9,4.2004152E9,9.283379E7,0E0,0E0,0E0,0E0,0E0,0E0,0E0,0E0,0E0,0E0,0E0,0E0,0E0,0E0,0E0,0E0,0E0,0E0,0E0,0E0],"parents":[2147483647,0,0,1,1,2,2,3,3,4,4,5,5,6,6,7,7,9,9,10,10,11,11,12,12,13,13,16,16,17,17,18,18,19,19,20,20,21,21,22,22,24,24,25,25,26,26],"right_children":[2,4,6,8,10,12,14,16,-1,18,20,22,24,26,-1,-1,28,30,32,34,36,38,40,-1,42,44,46,-1,-1,-1,-1,-1,-1,-1,-1,-1,-1,-1,-1,-1,-1,-1,-1,-1,-1,-1,-1],"split_conditions":[-1.3392633E5,-8.868097E5,8.3162664E4,1E0,-5.2022966E5,7.7084E4,1E0,2E0,-1.3903299E4,1E0,1E0,7.0017E4,-2.49504E5,1.39015E5,7.695043E3,-7.4723125E3,-5.12487E5,1E0,-5.83461E5,1E0,1E0,-1.1835E5,-1.98281E5,6.423662E3,1E0,1.30428664E5,1E0,2.8458875E3,-3.5410906E3,-1.6588094E3,-2.9240427E3,-6.6687827E3,-2.6044949E3,1.6752682E3,-8.183294E2,-2.3554236E3,-6.132823E3,4.2579497E3,1.7240537E3,-3.805143E3,4.1704746E3,-2.803191E3,1.1226005E3,2.6210085E3,-5.587025E2,5.456998E3,1.482429E3],"split_indices":[5,5,5,1,5,5,2,0,0,3,3,5,4,5,0,0,4,2,4,0,1,5,4,0,0,5,0,0,0,0,0,0,0,0,0,0,0,0,0,0,0,0,0,0,0,0,0],"split_type":[0,0,0,0,0,0,0,0,0,0,0,0,0,0,0,0,0,0,0,0,0,0,0,0,0,0,0,0,0,0,0,0,0,0,0,0,0,0,0,0,0,0,0,0,0,0,0],"sum_hessian":[1.12E3,6.03E2,5.17E2,9E0,5.94E2,4.06E2,1.11E2,4E0,5E0,4.28E2,1.66E2,3.89E2,1.7E1,1.1E2,1E0,1E0,3E0,4.18E2,1E1,1.61E2,5E0,3.63E2,2.6E1,1E0,1.6E1,1.04E2,6E0,2E0,1E0,3.08E2,1.1E2,6E0,4E0,2.1E1,1.4E2,3E0,2E0,9E0,3.54E2,1E0,2.5E1,9E0,7E0,1E2,4E0,5E0,1E0],"tree_param":{"num_deleted":"0","num_feature":"6","num_nodes":"47","size_leaf_vector":"1"}},{"base_weights":[-3.1786832E2,-1.6464365E4,1.8509934E4,-1.4756697E4,-7.123861E4,2.0851234E4,1.2401611E4,-1.752237E4,1.1250414E3,-1.589388E4,-5.034241E4,2.1360842E4,-8.845491E3,1.319201E3,1.7486328E4,-1.4150678E4,-2.831759E4,9.021455E3,-9.027413E3,-3.1945277E4,-6.474638E3,3.6623676E4,2.0328637E4,-1.6393068E4,1.8219984E3,4.2304253E3,-3.4771814E3,2.3103201E4,8.483441E3,-1.7078246E3,-8.162849E1,-2.1122056E3,-4.621148E3,1.1882266E3,-1.9102294E3,-1.6199554E3,1.0701636E3,-4.2389375E3,-1.9658334E3,2.851276E1,4.729471E3,1.9078861E3,3.384112E3,2.984836E2,-3.6765918E3,5.9287134E2,-2.3384302E3,5.986722E3,1.7228842E3,-3.5471484E3,1.8882106E3],"categories":[],"categories_nodes":[],"categories_segments":[],"categories_sizes":[],"default_left":[0,0,0,0,0,0,0,0,0,0,0,0,0,0,0,0,0,0,0,0,0,0,0,0,0,0,0,0,0,0,0,0,0,0,0,0,0,0,0,0,0,0,0,0,0,0,0,0,0,0,0],"id":28,"left_children":[1,3,5,7,9,11,13,15,17,-1,19,21,23,25,27,29,31,33,35,37,-1,39,41,43,-1,-1,45,47,49,-1,-1,-1,-1,-1,-1,-1,-1,-1,-1,-1,-1,-1,-1,-1,-1,-1,-1,-1,-1,-1,-1],"loss_changes":[3.4109217E11,5.5444603E10,7.1495516E9,2.5802908E10,2.4985444E10,5.833818E9,8.204165E9,1.7798382E10,7.1362227E9,0E0,2.1715272E9,5.0373427E9,1.7286328E9,9.386358E9,4.8608133E9,1.4937367E10,1.4217134E10,4.2498135E9,5.6918446E9,3.216302E8,0E0,8.517452E9,5.197447E9,2.478439E9,0E0,0E0,8.1901414E9,1.2142424E10,1.895268E10,0E0,0E0,0E0,0E0,0E0,0E0,0E0,0E0,0E0,0E0,0E0,0E0,0E0,0E0,0E0,0E0,0E0,0E0,0E0,0E0,0E0,0E0],"parents":[2147483647,0,0,1,1,2,2,3,3,4,4,5,5,6,6,7,7,8,8,10,10,11,11,12,12,13,13,14,14,15,15,16,16,17,17,18,18,19,19,21,21,22,22,23,23,26,26,27,27,28,28],"right_children":[2,4,6,8,10,12,14,16,18,-1,20,22,24,26,28,30,32,34,36,38,-1,40,42,44,-1,-1,46,48,50,-1,-1,-1,-1,-1,-1,-1,-1,-1,-1,-1,-1,-1,-1,-1,-1,-1,-1,-1,-1,-1,-1],"split_conditions":[-1.3392633E5,1E0,1E0,-4.9038566E5,-9.08103E5,1E0,-4.4086665E3,1E0,2E0,-1.589388E4,1E0,-1.41657E5,6.1256665E3,-1.1835E5,-1.5034E4,-4.88605E5,-4.83074E5,1.71354E5,3.9971E4,-5.91414E5,-6.474638E3,-3.27175E5,1.15042336E5,1.0282E4,1.8219984E3,4.2304253E3,1E0,7.4083335E3,1.4789667E4,-1.7078246E3,-8.162849E1,-2.1122056E3,-4.621148E3,1.1882266E3,-1.9102294E3,-1.6199554E3,1.0701636E3,-4.2389375E3,-1.9658334E3,2.851276E1,4.729471E3,1.9078861E3,3.384112E3,2.984836E2,-3.6765918E3,5.9287134E2,-2.3384302E3,5.986722E3,1.7228842E3,-3.5471484E3,1.8882106E3],"split_indices":[5,3,1,5,5,3,5,2,0,0,1,4,5,5,4,4,4,4,4,4,0,4,5,4,0,0,2,5,5,0,0,0,0,0,0,0,0,0,0,0,0,0,0,0,0,0,0,0,0,0,0],"split_type":[0,0,0,0,0,0,0,0,0,0,0,0,0,0,0,0,0,0,0,0,0,0,0,0,0,0,0,0,0,0,0,0,0,0,0,0,0,0,0,0,0,0,0,0,0,0,0,0,0,0,0],"sum_hessian":[1.12E3,6.03E2,5.17E2,5.86E2,1.7E1,3.72E2,1.45E2,4.99E2,8.7E1,2E0,1.5E1,3.66E2,6E0,4.6E1,9.9E1,3.82E2,1.17E2,4.9E1,3.8E1,8E0,7E0,2.1E1,3.45E2,5E0,1E0,4E0,4.2E1,6E1,3.9E1,3.13E2,6.9E1,8.5E1,3.2E1,4.5E1,4E0,2.8E1,1E1,3E0,5E0,5E0,1.6E1,3.18E2,2.7E1,3E0,2E0,2.9E1,1.3E1,7E0,5.3E1,7E0,3.2E1],"tree_param":{"num_deleted":"0","num_feature":"6","num_nodes":"51","size_leaf_vector":"1"}},{"base_weights":[-3.0512146E2,-1.4881461E4,1.6691816E4,-8.451692E4,-1.3686106E4,1.8788885E4,1.1219914E4,-2.09661E4,-1.23389795E4,-1.0033577E4,-2.2683992E4,1.9252143E4,-8.183241E3,1.2141369E4,-3.674993E4,-6.3040063E3,5.3124062E3,5.933364E3,-1.0501823E4,-2.9844184E4,-1.2178875E4,3.3177582E4,1.8311068E4,-1.5316776E4,1.7308984E3,7.503687E3,1.8888559E4,-4.3490103E3,-1.1634795E3,2.796975E3,-3.1329812E3,-2.6232712E3,-7.8294104E2,-2.1829763E3,-4.64431E3,2.9427485E3,-1.4447207E3,2.6136686E1,4.2843447E3,1.1491151E3,2.0352285E3,2.7609766E2,-3.4314856E3,2.0351125E3,-1.9641338E2,-1.8282596E3,2.3529128E3],"categories":[],"categories_nodes":[],"categories_segments":[],"categories_sizes":[],"default_left":[0,0,0,0,0,0,0,0,0,0,0,0,0,0,0,0,0,0,0,0,0,0,0,0,0,0,0,0,0,0,0,0,0,0,0,0,0,0,0,0,0,0,0,0,0,0,0],"id":29,"left_children":[1,3,5,7,9,11,13,15,-1,17,19,21,23,25,27,-1,29,-1,31,33,35,37,39,41,-1,43,45,-1,-1,-1,-1,-1,-1,-1,-1,-1,-1,-1,-1,-1,-1,-1,-1,-1,-1,-1,-1],"loss_changes":[2.779797E11,4.9119707E10,5.733204E9,2.2117024E10,1.9327099E10,4.8181985E9,6.8996997E9,5.8630994E9,0E0,1.4427505E10,1.2498919E10,4.2019717E9,1.5380657E9,4.3642184E9,1.842432E6,0E0,4.1971484E9,0E0,1.75773E10,1.2422267E10,7.1259126E9,6.9884027E9,4.5827686E9,2.1553976E9,0E0,1.0622413E10,1.0434898E10,0E0,0E0,0E0,0E0,0E0,0E0,0E0,0E0,0E0,0E0,0E0,0E0,0E0,0E0,0E0,0E0,0E0,0E0,0E0,0E0],"parents":[2147483647,0,0,1,1,2,2,3,3,4,4,5,5,6,6,7,7,9,9,10,10,11,11,12,12,13,13,14,14,16,16,18,18,19,19,20,20,21,21,22,22,23,23,25,25,26,26],"right_children":[2,4,6,8,10,12,14,16,-1,18,20,22,24,26,28,-1,30,-1,32,34,36,38,40,42,-1,44,46,-1,-1,-1,-1,-1,-1,-1,-1,-1,-1,-1,-1,-1,-1,-1,-1,-1,-1,-1,-1],"split_conditions":[-1.3392633E5,-8.868097E5,1E0,1E0,1E0,1E0,1.46562E5,2E0,-1.23389795E4,-8.481543E5,-5.70163E5,-1.41657E5,6.1256665E3,3.9891E4,1E0,-6.3040063E3,-5.12487E5,5.933364E3,-7.22645E5,-6.26693E5,-5.656247E5,-3.27175E5,-1.5034E4,1.0282E4,1.7308984E3,-4.9592E4,-1.98281E5,-4.3490103E3,-1.1634795E3,2.796975E3,-3.1329812E3,-2.6232712E3,-7.8294104E2,-2.1829763E3,-4.64431E3,2.9427485E3,-1.4447207E3,2.6136686E1,4.2843447E3,1.1491151E3,2.0352285E3,2.7609766E2,-3.4314856E3,2.0351125E3,-1.9641338E2,-1.8282596E3,2.3529128E3],"split_indices":[5,5,1,1,1,3,4,0,0,5,5,4,5,5,0,0,4,0,5,4,5,4,4,4,0,4,4,0,0,0,0,0,0,0,0,0,0,0,0,0,0,0,0,0,0,0,0],"split_type":[0,0,0,0,0,0,0,0,0,0,0,0,0,0,0,0,0,0,0,0,0,0,0,0,0,0,0,0,0,0,0,0,0,0,0,0,0,0,0,0,0,0,0,0,0,0,0],"sum_hessian":[1.12E3,6.03E2,5.17E2,9E0,5.94E2,3.72E2,1.45E2,4E0,5E0,4.24E2,1.7E2,3.66E2,6E0,1.43E2,2E0,1E0,3E0,2E0,4.22E2,1E2,7E1,2.1E1,3.45E2,5E0,1E0,8.6E1,5.7E1,1E0,1E0,2E0,1E0,6E1,3.62E2,6.9E1,3.1E1,3E0,6.7E1,5E0,1.6E1,8.1E1,2.64E2,3E0,2E0,3.6E1,5E1,6E0,5.1E1],"tree_param":{"num_deleted":"0","num_feature":"6","num_nodes":"47","size_leaf_vector":"1"}},{"base_weights":[-2.9143243E2,-1.4909457E4,1.3615265E4,-7.7963125E4,-1.3709743E4,1.4391029E4,-2.398029E4,-2.01975E4,-1.13107295E4,-1.0764191E4,-2.0853566E4,1.6583125E4,8.703092E3,-2.9150049E4,1.6443531E3,-5.988806E3,4.6971562E3,4.9727878E2,-1.4745267E4,-4.333246E3,-2.525062E4,1.4643036E4,2.3328803E4,-8.064489E2,1.4321786E4,-5.9776187E3,-2.0109816E4,2.6105085E3,-2.9763313E3,-3.6739304E2,1.9935295E3,5.664697E3,-1.5199305E3,-1.0727788E3,4.630777E3,-7.2562983E3,-2.2204148E3,1.571808E3,1.414794E2,2.1977283E3,7.1131343E3,-6.829245E2,1.2549545E3,1.9459934E3,6.128065E2,-5.5739376E1,-3.3051863E3],"categories":[],"categories_nodes":[],"categories_segments":[],"categories_sizes":[],"default_left":[0,0,0,0,0,0,0,0,0,0,0,0,0,0,0,0,0,0,0,0,0,0,0,0,0,0,0,0,0,0,0,0,0,0,0,0,0,0,0,0,0,0,0,0,0,0,0],"id":30,"left_children":[1,3,5,7,9,11,13,15,-1,17,19,21,23,25,-1,-1,27,29,31,33,35,37,39,41,43,-1,45,-1,-1,-1,-1,-1,-1,-1,-1,-1,-1,-1,-1,-1,-1,-1,-1,-1,-1,-1,-1],"loss_changes":[2.2808933E11,4.030971E10,1.7115152E10,1.801676E10,1.10964E10,6.8879073E9,2.9871058E9,5.221718E9,0E0,1.717828E10,1.1222532E10,4.971815E9,8.5071114E9,1.843454E9,0E0,0E0,3.7278825E9,8.262324E9,1.0034409E10,1.1506866E10,1.6117498E10,4.5000253E9,4.1866732E9,4.912129E9,4.0908063E9,0E0,2.512061E9,0E0,0E0,0E0,0E0,0E0,0E0,0E0,0E0,0E0,0E0,0E0,0E0,0E0,0E0,0E0,0E0,0E0,0E0,0E0,0E0],"parents":[2147483647,0,0,1,1,2,2,3,3,4,4,5,5,6,6,7,7,9,9,10,10,11,11,12,12,13,13,16,16,17,17,18,18,19,19,20,20,21,21,22,22,23,23,24,24,26,26],"right_children":[2,4,6,8,10,12,14,16,-1,18,20,22,24,26,-1,-1,28,30,32,34,36,38,40,42,44,-1,46,-1,-1,-1,-1,-1,-1,-1,-1,-1,-1,-1,-1,-1,-1,-1,-1,-1,-1,-1,-1],"split_conditions":[-4.6086766E5,-8.868097E5,1E0,1E0,1E0,1E0,6.1256665E3,2E0,-1.13107295E4,-6.12677E5,-8.30825E5,8.7324664E4,-4.4086665E3,-2.7492066E5,1.6443531E3,-5.988806E3,-5.12487E5,-6.61639E5,-8.481543E5,-8.54028E5,-7.78536E5,7.7084E4,1E0,4.6373E4,-1.5034E4,-5.9776187E3,1.0282E4,2.6105085E3,-2.9763313E3,-3.6739304E2,1.9935295E3,5.664697E3,-1.5199305E3,-1.0727788E3,4.630777E3,-7.2562983E3,-2.2204148E3,1.571808E3,1.414794E2,2.1977283E3,7.1131343E3,-6.829245E2,1.2549545E3,1.9459934E3,6.128065E2,-5.5739376E1,-3.3051863E3],"split_indices":[5,5,3,1,1,1,5,0,0,4,4,5,5,5,0,0,4,4,5,4,4,5,2,4,4,0,4,0,0,0,0,0,0,0,0,0,0,0,0,0,0,0,0,0,0,0,0],"split_type":[0,0,0,0,0,0,0,0,0,0,0,0,0,0,0,0,0,0,0,0,0,0,0,0,0,0,0,0,0,0,0,0,0,0,0,0,0,0,0,0,0,0,0,0,0,0,0],"sum_hessian":[1.12E3,5.46E2,5.74E2,9E0,5.37E2,5.63E2,1.1E1,4E0,5E0,3.82E2,1.55E2,4.05E2,1.58E2,1E1,1E0,1E0,3E0,1E2,2.82E2,3.3E1,1.22E2,3.17E2,8.8E1,5.9E1,9.9E1,1E0,9E0,2E0,1E0,8.3E1,1.7E1,1E0,2.81E2,3E1,3E0,6E0,1.16E2,2.93E2,2.4E1,8.7E1,1E0,4.1E1,1.8E1,6E1,3.9E1,4E0,5E0],"tree_param":{"num_deleted":"0","num_feature":"6","num_nodes":"47","size_leaf_vector":"1"}},{"base_weights":[-2.724121E2,-1.3783665E4,1.1998475E4,-1.24411E4,-6.6632555E4,1.2689401E4,-2.2223441E4,-2.8548596E4,-1.0898676E4,-1.3636205E4,-4.155792E4,-1.5813737E3,1.3641951E4,-1.200838E4,-4.8865835E3,-1.828883E4,-4.7848875E4,1.3375755E4,-1.1606081E4,-5.3483794E3,-1.6550113E4,9.888444E3,-1.9063004E4,6.3992593E3,1.3147732E4,-1.6814055E4,1.5621351E3,1.1229779E3,-4.666439E3,-1.881496E3,-6.0484336E3,3.4019028E3,-6.3590784E2,2.3942696E2,-1.3001847E3,6.723094E2,-2.4049187E3,2.1082683E3,-9.867332E2,5.5133986E0,-2.6020066E3,1.5673116E3,6.588321E2,-5.128E1,-2.97525E3],"categories":[],"categories_nodes":[],"categories_segments":[],"categories_sizes":[],"default_left":[0,0,0,0,0,0,0,0,0,0,0,0,0,0,0,0,0,0,0,0,0,0,0,0,0,0,0,0,0,0,0,0,0,0,0,0,0,0,0,0,0,0,0,0,0],"id":31,"left_children":[1,3,5,7,9,11,13,15,17,-1,19,21,23,25,-1,27,29,31,33,-1,35,37,39,-1,41,43,-1,-1,-1,-1,-1,-1,-1,-1,-1,-1,-1,-1,-1,-1,-1,-1,-1,-1,-1],"loss_changes":[1.8602166E11,3.7059977E10,1.4185169E10,1.2657721E10,1.7062814E10,7.86509E9,2.679045E9,8.035635E9,8.363393E9,0E0,2.395476E9,7.607415E9,1.2621005E10,1.5904535E9,0E0,2.6489846E10,4.364845E9,5.9198116E9,9.117786E9,0E0,1.0343224E9,5.294499E9,1.9965256E9,0E0,8.792154E9,1.8829588E9,0E0,0E0,0E0,0E0,0E0,0E0,0E0,0E0,0E0,0E0,0E0,0E0,0E0,0E0,0E0,0E0,0E0,0E0,0E0],"parents":[2147483647,0,0,1,1,2,2,3,3,4,4,5,5,6,6,7,7,8,8,10,10,11,11,12,12,13,13,15,15,16,16,17,17,18,18,20,20,21,21,22,22,24,24,25,25],"right_children":[2,4,6,8,10,12,14,16,18,-1,20,22,24,26,-1,28,30,32,34,-1,36,38,40,-1,42,44,-1,-1,-1,-1,-1,-1,-1,-1,-1,-1,-1,-1,-1,-1,-1,-1,-1,-1,-1],"split_conditions":[-4.75338E5,1E0,1E0,-7.986107E5,-9.08103E5,-3.27175E5,1E0,-5.10156E5,-7.817987E5,-1.3636205E4,-5.83461E5,-4.80307E5,-2.61622E5,6.1256665E3,-4.8865835E3,1E0,-8.32574E5,1E0,-8.30825E5,-5.3483794E3,-5.55148E5,2E0,1E0,6.3992593E3,1E0,1.0282E4,1.5621351E3,1.1229779E3,-4.666439E3,-1.881496E3,-6.0484336E3,3.4019028E3,-6.3590784E2,2.3942696E2,-1.3001847E3,6.723094E2,-2.4049187E3,2.1082683E3,-9.867332E2,5.5133986E0,-2.6020066E3,1.5673116E3,6.588321E2,-5.128E1,-2.97525E3],"split_indices":[5,3,3,5,5,4,1,4,5,0,4,4,4,5,0,1,5,2,4,0,4,0,0,0,1,4,0,0,0,0,0,0,0,0,0,0,0,0,0,0,0,0,0,0,0],"split_type":[0,0,0,0,0,0,0,0,0,0,0,0,0,0,0,0,0,0,0,0,0,0,0,0,0,0,0,0,0,0,0,0,0,0,0,0,0,0,0,0,0,0,0,0,0],"sum_hessian":[1.12E3,5.33E2,5.87E2,5.21E2,1.2E1,5.76E2,1.1E1,4.4E1,4.77E2,2E0,1E1,3.6E1,5.4E2,9E0,2E0,3E1,1.4E1,1.3E1,4.64E2,6E0,4E0,2.2E1,1.4E1,4E0,5.36E2,8E0,1E0,1.5E1,1.5E1,5E0,9E0,6E0,7E0,4.2E1,4.22E2,1E0,3E0,1.4E1,8E0,4E0,1E1,3.86E2,1.5E2,4E0,4E0],"tree_param":{"num_deleted":"0","num_feature":"6","num_nodes":"45","size_leaf_vector":"1"}},{"base_weights":[-2.716524E2,-1.1073614E4,1.232421E4,-9.684981E3,-5.574327E4,1.193332E4,3.9154402E4,-6.672236E3,-1.7159197E4,-1.2727121E4,-3.884783E4,3.3653004E4,1.1477793E4,4.2516514E3,9.490883E2,2.549876E3,-9.715431E3,-7.2100913E3,-1.4679252E4,-2.4568611E4,-5.005597E4,4.3052312E4,-2.6294922E3,1.2999959E4,2.185385E3,7.78869E2,-1.3667625E3,-1.3713435E3,5.0671964E2,-2.0115243E3,-6.6712787E2,-3.4048015E3,-1.415424E3,-1.4068094E3,-5.318737E3,5.08E2,4.7751216E3,-2.3946462E3,2.0002223E3,3.077246E3,1.1879095E3,-5.162309E2,2.0275608E3],"categories":[],"categories_nodes":[],"categories_segments":[],"categories_sizes":[],"default_left":[0,0,0,0,0,0,0,0,0,0,0,0,0,0,0,0,0,0,0,0,0,0,0,0,0,0,0,0,0,0,0,0,0,0,0,0,0,0,0,0,0,0,0],"id":32,"left_children":[1,3,5,7,9,11,13,15,17,-1,19,21,23,-1,-1,25,27,-1,29,31,33,35,37,39,41,-1,-1,-1,-1,-1,-1,-1,-1,-1,-1,-1,-1,-1,-1,-1,-1,-1,-1],"loss_changes":[1.5265977E11,3.6926095E10,4.9653596E9,1.3103526E10,1.6808722E10,4.679418E9,2.9460378E8,1.1811938E10,2.183202E10,0E0,1.3308887E9,3.5235103E9,7.0863217E9,0E0,0E0,9.027302E9,1.874541E10,0E0,6.9178737E9,4.065746E8,1.5329485E8,1.1848499E9,1.926301E9,8.240128E9,9.67501E9,0E0,0E0,0E0,0E0,0E0,0E0,0E0,0E0,0E0,0E0,0E0,0E0,0E0,0E0,0E0,0E0,0E0,0E0],"parents":[2147483647,0,0,1,1,2,2,3,3,4,4,5,5,6,6,7,7,8,8,10,10,11,11,12,12,15,15,16,16,18,18,19,19,20,20,21,21,22,22,23,23,24,24],"right_children":[2,4,6,8,10,12,14,16,18,-1,20,22,24,-1,-1,26,28,-1,30,32,34,36,38,40,42,-1,-1,-1,-1,-1,-1,-1,-1,-1,-1,-1,-1,-1,-1,-1,-1,-1,-1],"split_conditions":[-1.3392633E5,1E0,1.39015E5,1E0,-9.08103E5,-1.1835E5,1E0,-6.12677E5,-8.481543E5,-1.2727121E4,1E0,9.4947E4,1E0,4.2516514E3,9.490883E2,-5.0279466E5,-4.97684E5,-7.2100913E3,-5.68623E5,-5.91414E5,1E0,1E0,1.53549E5,-3.6493668E4,1.18261E5,7.78869E2,-1.3667625E3,-1.3713435E3,5.0671964E2,-2.0115243E3,-6.6712787E2,-3.4048015E3,-1.415424E3,-1.4068094E3,-5.318737E3,5.08E2,4.7751216E3,-2.3946462E3,2.0002223E3,3.077246E3,1.1879095E3,-5.162309E2,2.0275608E3],"split_indices":[5,3,5,1,5,5,0,4,5,0,1,4,2,0,0,5,5,0,5,4,0,2,4,5,4,0,0,0,0,0,0,0,0,0,0,0,0,0,0,0,0,0,0],"split_type":[0,0,0,0,0,0,0,0,0,0,0,0,0,0,0,0,0,0,0,0,0,0,0,0,0,0,0,0,0,0,0,0,0,0,0,0,0,0,0,0,0,0,0],"sum_hessian":[1.12E3,6.03E2,5.17E2,5.86E2,1.7E1,5.11E2,6E0,4.19E2,1.67E2,2E0,1.5E1,9E0,5.02E2,5E0,1E0,1.04E2,3.15E2,6E0,1.61E2,8E0,7E0,7E0,2E0,4.31E2,7.1E1,7.9E1,2.5E1,2.48E2,6.7E1,9.5E1,6.6E1,3E0,5E0,1E0,6E0,1E0,6E0,1E0,1E0,2.4E1,4.07E2,5.1E1,2E1],"tree_param":{"num_deleted":"0","num_feature":"6","num_nodes":"43","size_leaf_vector":"1"}},{"base_weights":[-2.621091E2,-1.0025228E4,1.1122419E4,-8.735815E3,-5.1517434E4,1.0692318E4,3.19023E4,-2.3940236E4,-7.459692E3,-1.1878646E4,-3.5684652E4,8.571762E3,1.5141035E4,-4.100435E3,5.5254504E4,-1.4278043E4,-4.2312754E4,1.3037083E4,-8.30925E3,-2.2647334E4,-4.5891055E4,1.6012489E4,6.020393E3,3.2659955E4,1.2175956E4,8.522109E3,3.1062127E4,-2.7106987E3,3.3579333E3,-1.6104281E3,-5.3806562E3,2.145211E3,-1.986443E3,-6.015947E2,-1.4118588E3,-3.1494438E3,-1.2974708E3,-1.3364688E3,-4.8628438E3,2.47878E3,8.183316E2,-1.3533424E3,7.3580756E2,1.357183E3,4.396148E3,-2.117759E3,1.4341415E3,3.6636642E2,4.3845444E3],"categories":[],"categories_nodes":[],"categories_segments":[],"categories_sizes":[],"default_left":[0,0,0,0,0,0,0,0,0,0,0,0,0,0,0,0,0,0,0,0,0,0,0,0,0,0,0,0,0,0,0,0,0,0,0,0,0,0,0,0,0,0,0,0,0,0,0,0,0],"id":33,"left_children":[1,3,5,7,9,11,13,15,17,-1,19,21,23,-1,25,27,29,31,33,35,37,39,41,43,45,-1,47,-1,-1,-1,-1,-1,-1,-1,-1,-1,-1,-1,-1,-1,-1,-1,-1,-1,-1,-1,-1,-1,-1],"loss_changes":[1.2470896E11,3.1864291E10,4.2884874E9,1.1210805E10,1.4932152E10,4.671996E9,1.9290986E10,7.384201E9,9.563695E9,0E0,1.0897162E9,6.49106E9,8.06937E9,0E0,3.152556E9,1.9942978E10,3.652012E9,6.517211E9,6.8694467E9,3.6154112E8,6.2393344E7,5.8430546E9,6.900347E9,4.3650355E9,1.0487544E10,0E0,1.940824E9,0E0,0E0,0E0,0E0,0E0,0E0,0E0,0E0,0E0,0E0,0E0,0E0,0E0,0E0,0E0,0E0,0E0,0E0,0E0,0E0,0E0,0E0],"parents":[2147483647,0,0,1,1,2,2,3,3,4,4,5,5,6,6,7,7,8,8,10,10,11,11,12,12,14,14,15,15,16,16,17,17,18,18,19,19,20,20,21,21,22,22,23,23,24,24,26,26],"right_children":[2,4,6,8,10,12,14,16,18,-1,20,22,24,-1,26,28,30,32,34,36,38,40,42,44,46,-1,48,-1,-1,-1,-1,-1,-1,-1,-1,-1,-1,-1,-1,-1,-1,-1,-1,-1,-1,-1,-1,-1,-1],"split_conditions":[-1.3392633E5,1E0,1.92549E5,-7.986107E5,-9.08103E5,6.7661336E4,-1.2243E4,-5.10156E5,1E0,-1.1878646E4,1E0,-6.5041E4,7.3553664E4,-4.100435E3,-1.8333334E3,-5.50073E5,-8.32574E5,1.71354E5,1E0,-5.91414E5,1E0,1.9295E4,-4.6559E4,7.0017E4,7.6141E4,8.522109E3,2.449E4,-2.7106987E3,3.3579333E3,-1.6104281E3,-5.3806562E3,2.145211E3,-1.986443E3,-6.015947E2,-1.4118588E3,-3.1494438E3,-1.2974708E3,-1.3364688E3,-4.8628438E3,2.47878E3,8.183316E2,-1.3533424E3,7.3580756E2,1.357183E3,4.396148E3,-2.117759E3,1.4341415E3,3.6636642E2,4.3845444E3],"split_indices":[5,3,4,5,5,5,5,4,0,0,1,4,5,0,5,4,5,4,1,4,0,5,4,5,5,0,5,0,0,0,0,0,0,0,0,0,0,0,0,0,0,0,0,0,0,0,0,0,0],"split_type":[0,0,0,0,0,0,0,0,0,0,0,0,0,0,0,0,0,0,0,0,0,0,0,0,0,0,0,0,0,0,0,0,0,0,0,0,0,0,0,0,0,0,0,0,0,0,0,0,0],"sum_hessian":[1.12E3,6.03E2,5.17E2,5.86E2,1.7E1,5.08E2,9E0,4.4E1,5.42E2,2E0,1.5E1,3.46E2,1.62E2,2E0,7E0,3E1,1.4E1,2.1E1,5.21E2,8E0,7E0,8.7E1,2.59E2,2.2E1,1.4E2,2E0,5E0,2.4E1,6E0,5E0,9E0,1.7E1,4E0,3.75E2,1.46E2,3E0,5E0,1E0,6E0,4E1,4.7E1,1.6E1,2.43E2,9E0,1.3E1,8E0,1.32E2,2E0,3E0],"tree_param":{"num_deleted":"0","num_feature":"6","num_nodes":"49","size_leaf_vector":"1"}},{"base_weights":[-2.4820586E2,-9.073563E3,1.0042845E4,-7.876193E3,-4.761706E4,9.6854E3,3.475266E4,-9.533141E3,1.6277848E3,-1.1086737E4,-3.2781555E4,2.9940045E4,9.263468E3,3.7778347E3,8.299266E2,4.7719624E3,-1.0889577E4,7.6952007E3,-6.192692E3,-2.0876684E4,-4.2076846E3,3.854576E4,-2.9885535E3,1.0596301E4,1.1378093E3,-7.959965E2,4.369138E3,-8.111076E2,-1.862494E3,1.8942269E3,1.9079575E1,-7.2777916E1,-2.7278257E3,-2.913233E3,-1.1893474E3,1.068674E3,4.605098E3,-2.3117039E3,1.8634209E3,2.6777183E3,9.5788544E2,-1.1005587E2,5.2987124E3],"categories":[],"categories_nodes":[],"categories_segments":[],"categories_sizes":[],"default_left":[0,0,0,0,0,0,0,0,0,0,0,0,0,0,0,0,0,0,0,0,0,0,0,0,0,0,0,0,0,0,0,0,0,0,0,0,0,0,0,0,0,0,0],"id":34,"left_children":[1,3,5,7,9,11,13,15,17,-1,19,21,23,-1,-1,25,27,29,31,33,-1,35,37,39,41,-1,-1,-1,-1,-1,-1,-1,-1,-1,-1,-1,-1,-1,-1,-1,-1,-1,-1],"loss_changes":[1.019028E11,2.7500069E10,4.2385859E9,9.259356E9,1.3255893E10,4.0982446E9,2.4674509E8,9.753944E9,4.2232614E9,0E0,8.9212314E8,2.9489388E9,5.435511E9,0E0,0E0,2.2150625E10,9.671102E9,4.2165138E9,4.4741473E9,3.209751E8,0E0,1.1805696E9,1.7364681E9,6.855598E9,8.4144804E9,0E0,0E0,0E0,0E0,0E0,0E0,0E0,0E0,0E0,0E0,0E0,0E0,0E0,0E0,0E0,0E0,0E0,0E0],"parents":[2147483647,0,0,1,1,2,2,3,3,4,4,5,5,6,6,7,7,8,8,10,10,11,11,12,12,15,15,16,16,17,17,18,18,19,19,21,21,22,22,23,23,24,24],"right_children":[2,4,6,8,10,12,14,16,18,-1,20,22,24,-1,-1,26,28,30,32,34,-1,36,38,40,42,-1,-1,-1,-1,-1,-1,-1,-1,-1,-1,-1,-1,-1,-1,-1,-1,-1,-1],"split_conditions":[-1.3392633E5,1E0,1.39015E5,-4.9038566E5,-9.08103E5,-1.1835E5,1E0,-8.30825E5,2E0,-1.1086737E4,1E0,9.4947E4,1E0,3.7778347E3,8.299266E2,-8.64853E5,1E0,-4.90473E5,-1.61796E5,-5.91414E5,-4.2076846E3,1.0282E4,1.53549E5,-3.6493668E4,5.1353E4,-7.959965E2,4.369138E3,-8.111076E2,-1.862494E3,1.8942269E3,1.9079575E1,-7.2777916E1,-2.7278257E3,-2.913233E3,-1.1893474E3,1.068674E3,4.605098E3,-2.3117039E3,1.8634209E3,2.6777183E3,9.5788544E2,-1.1005587E2,5.2987124E3],"split_indices":[5,3,5,5,5,5,0,4,0,0,1,4,2,0,0,4,1,4,5,4,0,4,4,5,5,0,0,0,0,0,0,0,0,0,0,0,0,0,0,0,0,0,0],"split_type":[0,0,0,0,0,0,0,0,0,0,0,0,0,0,0,0,0,0,0,0,0,0,0,0,0,0,0,0,0,0,0,0,0,0,0,0,0,0,0,0,0,0,0],"sum_hessian":[1.12E3,6.03E2,5.17E2,5.86E2,1.7E1,5.11E2,6E0,4.99E2,8.7E1,2E0,1.5E1,9E0,5.02E2,5E0,1E0,4.3E1,4.56E2,4.9E1,3.8E1,8E0,7E0,7E0,2E0,4.31E2,7.1E1,3.3E1,1E1,3.37E2,1.19E2,1.9E1,3E1,3.1E1,7E0,3E0,5E0,2E0,5E0,1E0,1E0,2.4E1,4.07E2,6.9E1,2E0],"tree_param":{"num_deleted":"0","num_feature":"6",